<?xml version="1.0"?>
<opencv_storage>
<opencv_ml_svm>
  <format>3</format>
  <svmType>C_SVC</svmType>
  <kernel>
    <type>RBF</type>
    <gamma>8.0000000000000004e-01</gamma></kernel>
  <C>10.</C>
  <term_criteria><epsilon>1.1920928955078125e-07</epsilon>
    <iterations>1000</iterations></term_criteria>
  <var_count>8</var_count>
  <class_count>2</class_count>
  <class_labels type_id="opencv-matrix">
    <rows>2</rows>
    <cols>1</cols>
    <dt>i</dt>
    <data>
      -1 1</data></class_labels>
  <sv_total>458</sv_total>
  <support_vectors>
    <_>
      -1.13156605e+00 -8.31789002e-02 5.89644670e-01 8.66275787e-01
      1.76840413e+00 1.55284882e+00 -9.54370141e-01 -5.23474574e-01</_>
    <_>
      4.00723517e-02 -8.31789002e-02 -2.37761125e-01 4.25236553e-01
      3.47267449e-01 1.35195494e-01 -7.61593342e-01 -7.75431812e-01</_>
    <_>
      -1.13156605e+00 -8.31789002e-02 1.10677338e+00 3.62230927e-01
      8.88789371e-02 5.60491383e-01 -5.04557610e-01 1.48411304e-01</_>
    <_>
      -1.13156605e+00 -1.83123797e-01 -2.37761125e-01 9.92287040e-01
      1.75008431e-01 5.99154592e-01 3.70587826e-01 -6.91446066e-01</_>
    <_>
      -2.52837241e-01 -1.83123797e-01 -9.61741209e-01 7.40264595e-01
      7.16530383e-02 -1.48335263e-01 -7.06514239e-01 -6.07460320e-01</_>
    <_>
      6.25891566e-01 -8.31789002e-02 -3.09096724e-02 6.14253402e-01
      3.47267449e-01 -2.77212828e-01 -4.55653295e-02 -1.03545912e-01</_>
    <_>
      -8.38656425e-01 8.31219292e+00 -1.34335399e-01 5.51247776e-01
      -6.86286569e-01 -7.15396523e-01 -3.91339481e-01 -1.87531650e-01</_>
    <_>
      1.21171069e+00 -1.83123797e-01 1.75941780e-01 1.73214108e-01
      -6.86286569e-01 -1.94576904e-02 3.70587826e-01 7.36311495e-01</_>
    <_>
      2.38334918e+00 8.21224785e+00 1.75941780e-01 6.77258968e-01
      -6.86286569e-01 -3.15876007e-01 -5.56576788e-01 1.07225442e+00</_>
    <_>
      -2.52837241e-01 -8.31789002e-02 5.89644670e-01 -1.27591491e+00
      -6.86286569e-01 2.89848685e-01 -2.35282093e-01 9.04282928e-01</_>
    <_>
      -1.13156605e+00 -8.31789002e-02 3.82793248e-01 -1.27591491e+00
      -6.86286569e-01 1.69461393e+00 6.33743346e-01 -7.75431812e-01</_>
    <_>
      -8.38656425e-01 -8.31789002e-02 -1.99599850e+00 1.11829829e+00
      2.85882875e-02 1.43685877e+00 -9.05410945e-01 -1.95601713e-02</_>
    <_>
      2.67625880e+00 -1.83123797e-01 1.10677338e+00 8.03270221e-01
      -4.36511010e-01 -6.89621150e-01 7.71441102e-01 8.20297241e-01</_>
    <_>
      1.21171069e+00 -8.31789002e-02 3.82793248e-01 -1.27591491e+00
      -6.86286569e-01 -5.60743570e-01 -7.40173697e-01 2.08008337e+00</_>
    <_>
      4.00723517e-02 -8.31789002e-02 1.00334764e+00 -5.82853198e-01
      6.48720682e-01 3.02736253e-01 3.64467829e-01 -4.39488858e-01</_>
    <_>
      -5.45746863e-01 -1.83123797e-01 -3.41186851e-01 -1.27591491e+00
      -6.86286569e-01 -6.25182390e-01 1.41091526e-01 -9.43403304e-01</_>
    <_>
      6.25891566e-01 -8.31789002e-02 1.00334764e+00 -1.27591491e+00
      -6.86286569e-01 5.99154592e-01 7.59201288e-01 -1.87531650e-01</_>
    <_>
      2.09043956e+00 -1.83123797e-01 1.31362474e+00 8.03270221e-01
      5.71204126e-01 5.73378980e-01 -6.88154519e-01 1.49218309e+00</_>
    <_>
      3.32981944e-01 -8.31789002e-02 5.89644670e-01 -1.27591491e+00
      -6.86286569e-01 -6.89621150e-01 -8.96230996e-01 3.00392652e+00</_>
    <_>
      -1.13156605e+00 -8.31789002e-02 -9.61741209e-01 -1.27591491e+00
      -6.86286569e-01 -1.32112122e+00 -6.88154519e-01 2.66798353e+00</_>
    <_>
      -2.52837241e-01 -8.31789002e-02 2.79367507e-01 -1.27591491e+00
      -6.86286569e-01 -3.41651618e-01 -1.09512782e+00 -1.03545912e-01</_>
    <_>
      -1.13156605e+00 -8.31789002e-02 5.89644670e-01 6.77258968e-01
      -2.29800209e-01 1.68172634e+00 -1.19304609e+00 -7.75431812e-01</_>
    <_>
      6.25891566e-01 -8.31789002e-02 2.79367507e-01 7.40264595e-01
      9.76012766e-01 -3.67427230e-01 1.10191548e+00 4.84354258e-01</_>
    <_>
      -8.38656425e-01 -1.83123797e-01 2.76158500e+00 -1.27591491e+00
      -6.86286569e-01 -1.25668240e+00 -8.31972182e-01 -5.23474574e-01</_>
    <_>
      4.00723517e-02 -8.31789002e-02 2.79367507e-01 2.99225330e-01
      1.83730769e+00 3.54287475e-01 -2.87301272e-01 -2.71517396e-01</_>
    <_>
      9.18801129e-01 -8.31789002e-02 1.00334764e+00 1.37032068e+00
      2.07847023e+00 7.79583395e-01 9.42798197e-01 5.68340003e-01</_>
    <_>
      4.00723517e-02 -1.83123797e-01 -3.54738450e+00 -1.27591491e+00
      -6.86286569e-01 -5.34967959e-01 4.01187301e-01 -1.87531650e-01</_>
    <_>
      9.18801129e-01 -8.31789002e-02 7.25160539e-02 8.03270221e-01
      5.62591195e-01 -9.08712924e-01 -9.66609836e-01 1.82812607e+00</_>
    <_>
      1.79752994e+00 -1.83123797e-01 -3.41186851e-01 9.92287040e-01
      -6.86286569e-01 1.16621614e+00 -1.15944073e-01 4.00368512e-01</_>
    <_>
      3.32981944e-01 -8.31789002e-02 -3.41186851e-01 1.30731511e+00
      4.24783975e-01 4.70276982e-01 1.07432149e-01 -6.91446066e-01</_>
    <_>
      9.18801129e-01 -8.31789002e-02 1.00334764e+00 1.49633193e+00
      -6.86286569e-01 2.30033875e+00 -4.34178770e-01 2.32397050e-01</_>
    <_>
      -8.38656425e-01 -8.31789002e-02 1.75941780e-01 -1.27591491e+00
      -6.86286569e-01 8.82685304e-01 2.27387595e+00 -1.95601713e-02</_>
    <_>
      1.50462031e+00 -8.31789002e-02 2.14103055e+00 2.36219719e-01
      1.38082135e+00 1.70750201e+00 7.40841627e-01 1.74414039e+00</_>
    <_>
      4.00723517e-02 -8.31789002e-02 -4.44612592e-01 -5.19847572e-01
      1.30330479e+00 -5.99406779e-01 1.47211522e-01 -1.87531650e-01</_>
    <_>
      -5.45746863e-01 -8.31789002e-02 5.89644670e-01 1.55933750e+00
      9.58786905e-01 1.99634284e-01 7.10242152e-01 -3.55503112e-01</_>
    <_>
      1.79752994e+00 -1.83123797e-01 -3.09096724e-02 1.73214108e-01
      4.50622827e-01 -8.57161939e-01 -4.67838228e-01 1.15624022e+00</_>
    <_>
      -5.45746863e-01 -8.31789002e-02 -3.54738450e+00 -1.27591491e+00
      -6.86286569e-01 -5.99406779e-01 -7.30993867e-01 -4.39488858e-01</_>
    <_>
      9.18801129e-01 -8.31789002e-02 8.99921894e-01 -1.27591491e+00
      -6.86286569e-01 7.02256501e-01 -5.35157144e-01 1.49218309e+00</_>
    <_>
      -8.38656425e-01 -8.31789002e-02 -1.34335399e-01 5.51247776e-01
      1.00185168e+00 -1.94576904e-02 -1.06764250e-01 7.36311495e-01</_>
    <_>
      2.09043956e+00 -1.83123797e-01 -3.54738450e+00 -1.27591491e+00
      -6.86286569e-01 2.59675694e+00 3.03268909e-01 5.68340003e-01</_>
    <_>
      3.32981944e-01 -8.31789002e-02 5.89644670e-01 -1.27591491e+00
      -6.86286569e-01 3.15623820e-01 -1.02474892e+00 9.88268673e-01</_>
    <_>
      9.18801129e-01 -8.31789002e-02 -2.37761125e-01 -1.27591491e+00
      -6.86286569e-01 -6.12294555e-01 7.74500966e-01 6.44255653e-02</_>
    <_>
      1.50462031e+00 -8.31789002e-02 5.89644670e-01 9.29281414e-01
      -6.86286569e-01 -4.06090409e-01 -6.60614967e-01 -3.55503112e-01</_>
    <_>
      1.50462031e+00 -8.31789002e-02 8.48209023e-01 -3.30830753e-01
      -6.86286569e-01 -2.77212828e-01 2.24633646e+00 1.32421160e+00</_>
    <_>
      1.21171069e+00 -8.31789002e-02 1.75941780e-01 1.37032068e+00
      4.33396935e-01 7.07567111e-02 7.34721601e-01 2.32397050e-01</_>
    <_>
      -1.13156605e+00 -8.31789002e-02 3.31080377e-01 1.73214108e-01
      -6.86286569e-01 -4.14353991e+00 2.84909278e-01 -1.02738905e+00</_>
    <_>
      2.09043956e+00 -1.83123797e-01 -3.09096724e-02 1.24430943e+00
      -6.86286569e-01 1.81060398e+00 -1.07982802e+00 7.36311495e-01</_>
    <_>
      -5.45746863e-01 -8.31789002e-02 -1.34335399e-01 -1.58027168e-02
      8.88789371e-02 9.65323225e-02 1.18759406e+00 -4.39488858e-01</_>
    <_>
      -2.52837241e-01 -8.31789002e-02 -3.54738450e+00 -1.27591491e+00
      -6.86286569e-01 -1.11491704e+00 -8.93171132e-01 -8.59417558e-01</_>
    <_>
      2.67625880e+00 -1.83123797e-01 1.10677338e+00 -1.27591491e+00
      -6.86286569e-01 1.44974685e+00 3.18568647e-01 7.36311495e-01</_>
    <_>
      -5.45746863e-01 -1.83123797e-01 -8.58315468e-01 1.10208504e-01
      3.04202676e-01 -4.70529199e-01 3.73347163e+00 -6.91446066e-01</_>
    <_>
      9.18801129e-01 -1.83123797e-01 4.86218959e-01 -1.27591491e+00
      -6.86286569e-01 5.78686595e-02 -2.68941551e-01 6.52325749e-01</_>
    <_>
      -1.13156605e+00 -8.31789002e-02 1.31362474e+00 1.62234306e+00
      5.62591195e-01 1.08888924e+00 -5.96356034e-01 -6.07460320e-01</_>
    <_>
      -1.13156605e+00 -8.31789002e-02 7.25160539e-02 -1.58027168e-02
      -6.86286569e-01 -6.12294555e-01 -6.88154519e-01 2.32397050e-01</_>
    <_>
      -2.52837241e-01 -8.31789002e-02 -1.27201843e+00 -4.56841975e-01
      -6.86286569e-01 -1.25668240e+00 -1.03698874e+00 -9.43403304e-01</_>
    <_>
      6.25891566e-01 -8.31789002e-02 5.89644670e-01 4.88242149e-01
      -6.86286569e-01 4.49810959e-02 1.22125363e+00 -6.07460320e-01</_>
    <_>
      3.32981944e-01 -1.83123797e-01 2.79367507e-01 -1.41813934e-01
      -1.09218910e-01 1.86746225e-01 1.58538735e+00 8.20297241e-01</_>
    <_>
      1.21171069e+00 -8.31789002e-02 -3.09096724e-02 9.92287040e-01
      3.57712364e+00 -2.64325023e-01 4.16487038e-01 2.24805474e+00</_>
    <_>
      3.32981944e-01 -8.31789002e-02 2.03760481e+00 -1.27591491e+00
      -6.86286569e-01 2.14568543e+00 -7.70773172e-01 3.16382796e-01</_>
    <_>
      -8.38656425e-01 -8.31789002e-02 3.82793248e-01 -1.27591491e+00
      -6.86286569e-01 6.89368963e-01 -8.62571657e-01 -6.07460320e-01</_>
    <_>
      -8.38656425e-01 -8.31789002e-02 1.10677338e+00 1.93737113e+00
      1.20856237e+00 2.26167536e+00 -4.70898211e-01 -1.87531650e-01</_>
    <_>
      -1.13156605e+00 -8.31789002e-02 3.82793248e-01 -1.27591491e+00
      -6.86286569e-01 1.48083061e-01 -6.14715815e-01 -8.59417558e-01</_>
    <_>
      3.32981944e-01 -8.31789002e-02 8.99921894e-01 -1.27591491e+00
      -6.86286569e-01 3.28511864e-01 -5.77996433e-01 -1.95601713e-02</_>
    <_>
      -5.45746863e-01 -8.31789002e-02 7.25160539e-02 -1.27591491e+00
      -6.86286569e-01 -4.18978214e-01 1.93110719e-01 -8.59417558e-01</_>
    <_>
      4.00723517e-02 -8.31789002e-02 7.25160539e-02 -1.41813934e-01
      3.64493340e-01 -4.18978214e-01 2.03520012e+00 9.88268673e-01</_>
    <_>
      4.00723517e-02 -8.31789002e-02 1.75941780e-01 -1.27591491e+00
      -6.86286569e-01 -1.07625389e+00 -6.17775679e-01 2.24805474e+00</_>
    <_>
      -5.45746863e-01 -8.31789002e-02 -3.09096724e-02 4.88242149e-01
      1.07936823e+00 9.65323225e-02 1.21207368e+00 -2.71517396e-01</_>
    <_>
      -2.52837241e-01 -8.31789002e-02 7.25160539e-02 6.77258968e-01
      -6.86286569e-01 3.54287475e-01 -7.27933884e-01 -6.91446066e-01</_>
    <_>
      1.21171069e+00 -8.31789002e-02 -1.34335399e-01 -1.27591491e+00
      -6.86286569e-01 3.54287475e-01 -1.07064819e+00 6.52325749e-01</_>
    <_>
      9.18801129e-01 -8.31789002e-02 7.96496153e-01 -1.27591491e+00
      -6.86286569e-01 9.98675346e-01 -4.52538490e-01 6.52325749e-01</_>
    <_>
      1.21171069e+00 -8.31789002e-02 1.10677338e+00 8.66275787e-01
      1.89759839e+00 1.99634284e-01 -3.63854207e-02 2.08008337e+00</_>
    <_>
      -1.13156605e+00 -1.83123797e-01 -3.54738450e+00 -1.27591491e+00
      -6.86286569e-01 -4.14353991e+00 -6.82034612e-01 -6.91446066e-01</_>
    <_>
      -5.45746863e-01 -8.31789002e-02 3.82793248e-01 9.29281414e-01
      9.84625697e-01 7.79583395e-01 -4.58658397e-01 -3.55503112e-01</_>
    <_>
      -8.38656425e-01 -8.31789002e-02 7.96496153e-01 1.73214108e-01
      1.98372781e+00 1.32086933e+00 1.82712328e+00 -9.43403304e-01</_>
    <_>
      9.18801129e-01 -8.31789002e-02 -2.37761125e-01 -1.27591491e+00
      -6.86286569e-01 -6.12294555e-01 -5.65756619e-01 5.68340003e-01</_>
    <_>
      -5.45746863e-01 -1.83123797e-01 -1.86048269e-01 -1.27591491e+00
      -6.86286569e-01 9.60011661e-01 1.38037097e+00 -5.23474574e-01</_>
    <_>
      1.21171069e+00 -8.31789002e-02 -3.54738450e+00 -1.27591491e+00
      -6.86286569e-01 -2.77212828e-01 -9.05410945e-01 4.00368512e-01</_>
    <_>
      4.00723517e-02 -8.31789002e-02 1.75941780e-01 -1.27591491e+00
      -6.86286569e-01 1.47552192e+00 3.33950913e-04 -6.07460320e-01</_>
    <_>
      -5.45746863e-01 -8.31789002e-02 7.25160539e-02 4.96164036e+00
      -6.86286569e-01 3.28511864e-01 2.94088989e-01 2.41602635e+00</_>
    <_>
      9.18801129e-01 -8.31789002e-02 4.86218959e-01 5.51247776e-01
      3.98945123e-01 3.92950654e-01 6.52102947e-01 1.74414039e+00</_>
    <_>
      1.21171069e+00 -8.31789002e-02 3.82793248e-01 -1.27591491e+00
      -6.86286569e-01 8.44022155e-01 -8.83991301e-01 7.36311495e-01</_>
    <_>
      9.18801129e-01 -8.31789002e-02 7.96496153e-01 4.72028926e-02
      9.67399836e-01 4.83165056e-01 3.27748567e-01 1.49218309e+00</_>
    <_>
      2.38334918e+00 9.01180744e+00 -3.41186851e-01 -8.34875643e-01
      1.53585446e+00 -5.86518943e-01 1.36813104e+00 9.04282928e-01</_>
    <_>
      -8.38656425e-01 -8.31789002e-02 8.99921894e-01 1.18130386e+00
      1.20856237e+00 1.73327708e+00 1.00705719e+00 -3.55503112e-01</_>
    <_>
      -8.38656425e-01 -8.31789002e-02 6.93070412e-01 1.43332624e+00
      -1.09218910e-01 8.36442709e-02 -4.21939045e-01 1.40819740e+00</_>
    <_>
      1.50462031e+00 -8.31789002e-02 1.75941780e-01 1.10208504e-01
      -2.03961357e-01 -1.46288657e+00 7.77560890e-01 1.24022591e+00</_>
    <_>
      -8.38656425e-01 -1.83123797e-01 -1.99599850e+00 1.37032068e+00
      1.66395485e-01 2.94472647e+00 5.23530506e-02 -6.07460320e-01</_>
    <_>
      1.50462031e+00 -8.31789002e-02 7.25160539e-02 -1.27591491e+00
      -6.86286569e-01 2.64073074e-01 5.29705107e-01 9.88268673e-01</_>
    <_>
      9.18801129e-01 -8.31789002e-02 -3.54738450e+00 -1.27591491e+00
      -6.86286569e-01 -8.95825088e-01 -8.25852215e-01 3.16382796e-01</_>
    <_>
      -2.52837241e-01 -8.31789002e-02 -2.37761125e-01 1.05529261e+00
      1.25162709e+00 3.02736253e-01 -3.76039743e-01 -2.71517396e-01</_>
    <_>
      2.38334918e+00 -1.83123797e-01 4.86218959e-01 -2.04819545e-01
      -6.86286569e-01 -7.28284359e-01 -6.72854781e-01 2.41602635e+00</_>
    <_>
      -1.13156605e+00 -8.31789002e-02 -3.41186851e-01 -2.04819545e-01
      1.12243283e+00 -1.29534566e+00 -8.31972182e-01 -1.02738905e+00</_>
    <_>
      -5.45746863e-01 -8.31789002e-02 7.25160539e-02 2.00037670e+00
      -1.95348412e-01 1.07600164e+00 6.06203794e-01 -6.91446066e-01</_>
    <_>
      6.25891566e-01 -8.31789002e-02 4.86218959e-01 -1.27591491e+00
      -6.86286569e-01 -1.11491704e+00 -1.07064819e+00 2.16406894e+00</_>
    <_>
      2.38334918e+00 -1.83123797e-01 8.48209023e-01 8.03270221e-01
      -6.86286569e-01 6.76481426e-01 -7.18754053e-01 6.52325749e-01</_>
    <_>
      -5.45746863e-01 -8.31789002e-02 -4.44612592e-01 -1.58027168e-02
      5.19526422e-01 2.12521851e-01 -1.19610608e+00 -1.87531650e-01</_>
    <_>
      3.32981944e-01 -1.83123797e-01 -1.34335399e-01 4.72028926e-02
      -4.88188714e-01 -9.98927295e-01 -4.18879032e-01 -2.71517396e-01</_>
    <_>
      6.25891566e-01 -8.31789002e-02 7.25160539e-02 1.73214108e-01
      4.33396935e-01 4.18726265e-01 1.93110719e-01 -3.55503112e-01</_>
    <_>
      -5.45746863e-01 -8.31789002e-02 1.21019900e+00 -1.27591491e+00
      -6.86286569e-01 1.35953248e+00 1.12027538e+00 1.74414039e+00</_>
    <_>
      2.38334918e+00 -1.83123797e-01 7.25160539e-02 1.24430943e+00
      1.64782286e+00 1.24354243e+00 8.05100441e-01 4.00368512e-01</_>
    <_>
      9.18801129e-01 -8.31789002e-02 -1.34335399e-01 -1.27591491e+00
      -6.86286569e-01 -2.25661859e-01 -2.93421179e-01 2.32397050e-01</_>
    <_>
      -8.38656425e-01 -8.31789002e-02 -3.09096724e-02 1.81135988e+00
      4.30061150e+00 1.32086933e+00 6.82702601e-01 -4.39488858e-01</_>
    <_>
      -5.45746863e-01 -8.31789002e-02 7.25160539e-02 1.55933750e+00
      3.99054527e+00 -2.12774053e-01 -9.81909573e-01 1.66015458e+00</_>
    <_>
      -5.45746863e-01 -1.83123797e-01 3.82793248e-01 -1.58027168e-02
      -6.86286569e-01 -1.02470267e+00 3.73041153e+00 -4.39488858e-01</_>
    <_>
      3.32981944e-01 -8.31789002e-02 4.86218959e-01 -1.27591491e+00
      -6.86286569e-01 1.99634284e-01 -7.98312724e-01 2.66798353e+00</_>
    <_>
      -5.45746863e-01 -1.83123797e-01 5.89644670e-01 -3.93836379e-01
      -2.12574303e-01 -9.98927295e-01 -7.03454316e-01 -7.75431812e-01</_>
    <_>
      -1.13156605e+00 -8.31789002e-02 5.89644670e-01 -1.27591491e+00
      -6.86286569e-01 -1.22559652e-01 6.85762525e-01 -3.55503112e-01</_>
    <_>
      9.18801129e-01 -8.31789002e-02 -9.61741209e-01 8.03270221e-01
      2.68998981e+00 2.25409895e-01 1.06213617e+00 6.44255653e-02</_>
    <_>
      -5.45746863e-01 -8.31789002e-02 -3.54738450e+00 -1.27591491e+00
      -6.86286569e-01 -1.61753953e+00 1.08049595e+00 3.25588369e+00</_>
    <_>
      6.25891566e-01 -8.31789002e-02 1.75941780e-01 1.55933750e+00
      1.29469180e+00 1.86746225e-01 7.77560890e-01 6.44255653e-02</_>
    <_>
      -8.38656425e-01 -8.31789002e-02 -4.44612592e-01 -7.71870017e-01
      8.81270349e-01 -8.70049715e-01 1.43239009e+00 -1.02738905e+00</_>
    <_>
      -1.13156605e+00 -8.31789002e-02 4.86218959e-01 -1.27591491e+00
      -6.86286569e-01 3.20935361e-02 -2.62821645e-01 -1.02738905e+00</_>
    <_>
      -8.38656425e-01 -8.31789002e-02 2.79367507e-01 1.87436557e+00
      1.07075524e+00 6.76481426e-01 -2.44461998e-01 -7.75431812e-01</_>
    <_>
      -5.45746863e-01 -1.83123797e-01 -3.09096724e-02 1.37032068e+00
      -6.86286569e-01 7.79583395e-01 7.37727806e-02 -5.23474574e-01</_>
    <_>
      3.32981944e-01 -8.31789002e-02 -2.37761125e-01 9.29281414e-01
      5.19526422e-01 -4.57641393e-01 -2.07742542e-01 -6.07460320e-01</_>
    <_>
      -1.13156605e+00 -8.31789002e-02 1.75941780e-01 -1.27591491e+00
      -6.86286569e-01 5.34715772e-01 -6.75914824e-01 1.57616889e+00</_>
    <_>
      -1.13156605e+00 -8.31789002e-02 1.00334764e+00 -1.27591491e+00
      -6.86286569e-01 -7.10086673e-02 8.08160365e-01 -1.03545912e-01</_>
    <_>
      -1.13156605e+00 -1.83123797e-01 -3.54738450e+00 -1.27591491e+00
      -6.86286569e-01 -9.21600699e-01 -6.91214561e-01 -9.43403304e-01</_>
    <_>
      -2.52837241e-01 -1.83123797e-01 -4.44612592e-01 -1.41813934e-01
      -6.86286569e-01 -1.33400905e+00 -1.06764250e-01 -1.02738905e+00</_>
    <_>
      2.96916842e+00 -1.83123797e-01 4.86218959e-01 2.99225330e-01
      8.98496211e-01 5.73378980e-01 -2.04682633e-01 1.07225442e+00</_>
    <_>
      6.25891566e-01 -8.31789002e-02 6.93070412e-01 -1.27591491e+00
      -6.86286569e-01 -1.74110875e-01 -9.14590776e-01 2.32397050e-01</_>
    <_>
      -8.38656425e-01 -8.31789002e-02 -9.61741209e-01 1.24430943e+00
      7.52076089e-01 1.48083061e-01 1.47828925e+00 -4.39488858e-01</_>
    <_>
      3.32981944e-01 -8.31789002e-02 7.96496153e-01 1.30731511e+00
      7.16530383e-02 3.67175043e-01 -5.90236127e-01 1.48411304e-01</_>
    <_>
      6.25891566e-01 -8.31789002e-02 4.86218959e-01 6.77258968e-01
      -6.86286569e-01 -5.86518943e-01 2.63489544e-01 1.32421160e+00</_>
    <_>
      -5.45746863e-01 -1.83123797e-01 -2.37761125e-01 2.36219719e-01
      -2.12574303e-01 -3.15876007e-01 -3.33200485e-01 -1.95601713e-02</_>
    <_>
      4.00723517e-02 -8.31789002e-02 6.93070412e-01 -1.41813934e-01
      -6.86286569e-01 4.49810959e-02 -7.46293604e-01 3.08791208e+00</_>
    <_>
      1.21171069e+00 -8.31789002e-02 1.62390196e+00 9.92287040e-01
      -6.86286569e-01 1.43685877e+00 -7.34053791e-01 9.88268673e-01</_>
    <_>
      -1.13156605e+00 -8.31789002e-02 8.48209023e-01 2.12638783e+00
      -6.86286569e-01 1.37241995e+00 -3.17900747e-01 -7.75431812e-01</_>
    <_>
      -5.45746863e-01 -8.31789002e-02 5.89644670e-01 -1.27591491e+00
      -6.86286569e-01 -6.63845539e-01 -6.72854781e-01 1.57616889e+00</_>
    <_>
      1.21171069e+00 -8.31789002e-02 1.00334764e+00 9.92287040e-01
      2.43912041e-01 8.18246543e-01 -3.97459388e-01 1.32421160e+00</_>
    <_>
      9.18801129e-01 -8.31789002e-02 -1.34335399e-01 7.40264595e-01
      -6.86286569e-01 8.95572901e-01 -4.12759125e-01 -1.87531650e-01</_>
    <_>
      1.79752994e+00 -1.83123797e-01 3.82793248e-01 4.88242149e-01
      3.64493340e-01 4.83165056e-01 -6.08595908e-01 4.84354258e-01</_>
    <_>
      -8.38656425e-01 -8.31789002e-02 4.86218959e-01 1.37032068e+00
      1.83730769e+00 1.01156294e+00 2.38403416e+00 -9.43403304e-01</_>
    <_>
      4.00723517e-02 -8.31789002e-02 -2.37761125e-01 1.49633193e+00
      1.66395485e-01 3.41399431e-01 1.30387211e+00 -6.07460320e-01</_>
    <_>
      -5.45746863e-01 -8.31789002e-02 3.31080377e-01 7.40264595e-01
      -6.86286569e-01 4.57389444e-01 -1.01250911e+00 -1.02738905e+00</_>
    <_>
      -5.45746863e-01 -1.83123797e-01 -3.09096724e-02 -4.56841975e-01
      -2.64252007e-01 -1.42422318e+00 5.14405429e-01 -6.07460320e-01</_>
    <_>
      9.18801129e-01 -8.31789002e-02 1.21019900e+00 -1.41813934e-01
      -6.86286569e-01 -1.21801901e+00 -7.46293604e-01 1.24022591e+00</_>
    <_>
      1.50462031e+00 -8.31789002e-02 3.82793248e-01 1.05529261e+00
      -6.86286569e-01 9.65323225e-02 5.69484532e-01 1.07225442e+00</_>
    <_>
      2.38334918e+00 -1.83123797e-01 5.89644670e-01 -1.27591491e+00
      -6.86286569e-01 -1.10202920e+00 -1.04616857e+00 9.04282928e-01</_>
    <_>
      3.32981944e-01 -1.83123797e-01 -3.41186851e-01 -1.27591491e+00
      -6.86286569e-01 -9.21600699e-01 3.30808461e-01 2.32397050e-01</_>
    <_>
      9.18801129e-01 -8.31789002e-02 1.10677338e+00 1.30731511e+00
      -6.86286569e-01 -1.94576904e-02 -2.68941551e-01 4.84354258e-01</_>
    <_>
      4.00723517e-02 -8.31789002e-02 -4.44612592e-01 4.25236553e-01
      2.05263138e+00 -1.61223069e-01 -1.00638926e+00 -3.55503112e-01</_>
    <_>
      -8.38656425e-01 -8.31789002e-02 6.93070412e-01 -1.27591491e+00
      -6.86286569e-01 1.02445042e+00 -7.43233621e-01 -4.39488858e-01</_>
    <_>
      2.09043956e+00 -1.83123797e-01 7.96496153e-01 1.24430943e+00
      -6.86286569e-01 1.88793027e+00 1.36507118e+00 9.88268673e-01</_>
    <_>
      -5.45746863e-01 -8.31789002e-02 1.00334764e+00 1.05529261e+00
      3.47267449e-01 1.59151196e+00 5.11345506e-01 -7.75431812e-01</_>
    <_>
      -5.45746863e-01 -8.31789002e-02 -6.51464045e-01 4.25236553e-01
      7.34850168e-01 -4.06090409e-01 -1.61843345e-01 -9.43403304e-01</_>
    <_>
      3.32981944e-01 -8.31789002e-02 3.82793248e-01 4.25236553e-01
      1.09659410e+00 1.47552192e+00 1.69860566e+00 1.66015458e+00</_>
    <_>
      1.21171069e+00 -8.31789002e-02 3.82793248e-01 5.51247776e-01
      1.72533929e+00 6.89368963e-01 3.85887563e-01 1.99609756e+00</_>
    <_>
      3.32981944e-01 -8.31789002e-02 3.31080377e-01 3.62230927e-01
      -6.86286569e-01 4.96052593e-01 2.05350533e-01 2.24805474e+00</_>
    <_>
      3.32981944e-01 -8.31789002e-02 6.93070412e-01 6.14253402e-01
      -6.86286569e-01 9.47124124e-01 -5.90236127e-01 4.00368512e-01</_>
    <_>
      9.18801129e-01 -8.31789002e-02 7.96496153e-01 8.03270221e-01
      -6.86286569e-01 4.31613833e-01 -3.79099756e-01 6.52325749e-01</_>
    <_>
      6.25891566e-01 -8.31789002e-02 -3.09096724e-02 3.62230927e-01
      7.60689020e-01 1.86746225e-01 4.65446115e-01 1.32421160e+00</_>
    <_>
      -5.45746863e-01 -1.83123797e-01 -7.54889786e-01 -3.93836379e-01
      7.16530383e-02 -7.79835343e-01 8.23460281e-01 -9.43403304e-01</_>
    <_>
      1.21171069e+00 -8.31789002e-02 2.79367507e-01 1.11829829e+00
      -4.03153114e-02 -8.05610955e-01 -9.69669878e-01 4.84354258e-01</_>
    <_>
      1.79752994e+00 -1.83123797e-01 2.79367507e-01 -1.27591491e+00
      -6.86286569e-01 7.53807783e-01 1.77810982e-01 6.44255653e-02</_>
    <_>
      -5.45746863e-01 -1.83123797e-01 -2.37761125e-01 7.40264595e-01
      6.91785455e-01 7.53807783e-01 5.97024083e-01 -8.59417558e-01</_>
    <_>
      3.32981944e-01 -1.83123797e-01 2.79367507e-01 1.10208504e-01
      -6.86286569e-01 -4.06090409e-01 2.27999568e+00 -1.03545912e-01</_>
    <_>
      1.50462031e+00 -8.31789002e-02 6.93070412e-01 2.36219719e-01
      -6.86286569e-01 -5.09192348e-01 2.45747256e+00 1.40819740e+00</_>
    <_>
      -2.52837241e-01 -8.31789002e-02 2.79367507e-01 -7.88083225e-02
      3.90332192e-01 -2.90100634e-01 -6.45315230e-01 -1.87531650e-01</_>
    <_>
      2.67625880e+00 -1.83123797e-01 -3.54738450e+00 6.14253402e-01
      -6.86286569e-01 9.98675346e-01 2.75729358e-01 9.04282928e-01</_>
    <_>
      -1.13156605e+00 -8.31789002e-02 -3.54738450e+00 -1.27591491e+00
      -6.86286569e-01 5.34715772e-01 1.38955081e+00 -6.91446066e-01</_>
    <_>
      1.50462031e+00 -1.83123797e-01 4.86218959e-01 2.99225330e-01
      -6.86286569e-01 -7.10086673e-02 -6.08595908e-01 4.00368512e-01</_>
    <_>
      9.18801129e-01 -8.31789002e-02 -3.54738450e+00 -1.27591491e+00
      -6.86286569e-01 -2.77212828e-01 1.56336799e-02 -1.03545912e-01</_>
    <_>
      -8.38656425e-01 -1.83123797e-01 7.25160539e-02 1.24430943e+00
      -6.86286569e-01 7.66695321e-01 -7.98312724e-01 -2.71517396e-01</_>
    <_>
      3.32981944e-01 -8.31789002e-02 6.93070412e-01 -1.27591491e+00
      -6.86286569e-01 8.95572901e-01 1.45992947e+00 3.16382796e-01</_>
    <_>
      -5.45746863e-01 -1.83123797e-01 1.10677338e+00 6.14253402e-01
      -6.86286569e-01 1.73858672e-01 -5.71876526e-01 7.36311495e-01</_>
    <_>
      -1.13156605e+00 -8.31789002e-02 7.25160539e-02 -1.27591491e+00
      -6.86286569e-01 7.40920186e-01 -4.43358660e-01 -4.39488858e-01</_>
    <_>
      1.21171069e+00 -8.31789002e-02 5.89644670e-01 -1.27591491e+00
      -6.86286569e-01 -9.73151684e-01 1.15393472e+00 6.44255653e-02</_>
    <_>
      -2.52837241e-01 -8.31789002e-02 7.25160539e-02 6.14253402e-01
      2.13876104e+00 4.31613833e-01 -4.12759125e-01 1.48411304e-01</_>
    <_>
      1.50462031e+00 -8.31789002e-02 7.96496153e-01 4.72028926e-02
      -6.86286569e-01 -1.74110875e-01 1.07743585e+00 -1.03545912e-01</_>
    <_>
      9.18801129e-01 -8.31789002e-02 -3.09096724e-02 4.88242149e-01
      -6.86286569e-01 4.83165056e-01 8.14280391e-01 6.52325749e-01</_>
    <_>
      -1.13156605e+00 -8.31789002e-02 1.10677338e+00 -1.27591491e+00
      -6.86286569e-01 -3.28763813e-01 -8.62571657e-01 1.07225442e+00</_>
    <_>
      -8.38656425e-01 -1.83123797e-01 6.93070412e-01 2.99225330e-01
      8.64044428e-01 3.67175043e-01 -7.52413511e-01 8.20297241e-01</_>
    <_>
      6.25891566e-01 -1.83123797e-01 -5.48038304e-01 8.03270221e-01
      9.50173914e-01 2.38297462e-01 -1.49603531e-01 8.20297241e-01</_>
    <_>
      -5.45746863e-01 -8.31789002e-02 -5.48038304e-01 1.24430943e+00
      1.23330735e-01 3.54287475e-01 -7.76893079e-01 -6.91446066e-01</_>
    <_>
      1.79752994e+00 -1.83123797e-01 4.86218959e-01 6.77258968e-01
      -6.86286569e-01 -5.86518943e-01 1.01312332e-01 9.88268673e-01</_>
    <_>
      -8.38656425e-01 -8.31789002e-02 -4.44612592e-01 1.62234306e+00
      8.46818507e-01 4.31613833e-01 -1.95502818e-01 -7.75431812e-01</_>
    <_>
      -5.45746863e-01 -8.31789002e-02 -7.54889786e-01 4.88242149e-01
      2.18073189e-01 7.28032112e-01 5.84729612e-02 -7.75431812e-01</_>
    <_>
      3.32981944e-01 -8.31789002e-02 3.82793248e-01 -1.27591491e+00
      -6.86286569e-01 -1.22559652e-01 -4.15819108e-01 9.04282928e-01</_>
    <_>
      9.18801129e-01 -8.31789002e-02 3.82793248e-01 -1.27591491e+00
      -6.86286569e-01 9.34236526e-01 -6.78974688e-01 8.20297241e-01</_>
    <_>
      -1.13156605e+00 -8.31789002e-02 8.99921894e-01 -2.04819545e-01
      2.18073189e-01 -3.67427230e-01 6.61282897e-01 -5.23474574e-01</_>
    <_>
      -2.52837241e-01 -8.31789002e-02 -2.37761125e-01 -4.56841975e-01
      2.64692497e+00 -1.22559652e-01 -5.62696695e-01 -7.75431812e-01</_>
    <_>
      4.00723517e-02 -8.31789002e-02 2.14103055e+00 6.77258968e-01
      -6.86286569e-01 -4.70529199e-01 6.15383685e-01 3.16382796e-01</_>
    <_>
      2.67625880e+00 -1.83123797e-01 7.25160539e-02 -1.27591491e+00
      -6.86286569e-01 2.64073074e-01 -6.97334468e-01 1.57616889e+00</_>
    <_>
      4.00723517e-02 -8.31789002e-02 -3.41186851e-01 6.77258968e-01
      1.75979114e+00 8.36442709e-02 -7.40173697e-01 -8.59417558e-01</_>
    <_>
      2.09043956e+00 -1.83123797e-01 3.82793248e-01 4.88242149e-01
      6.05655909e-01 1.48083061e-01 2.67472935e+00 1.49218309e+00</_>
    <_>
      -2.52837241e-01 -8.31789002e-02 -3.54738450e+00 -1.27591491e+00
      -6.86286569e-01 -2.77212828e-01 8.63239467e-01 -5.23474574e-01</_>
    <_>
      4.00723517e-02 -8.31789002e-02 -3.41186851e-01 -1.27591491e+00
      -6.86286569e-01 -1.94576904e-02 -7.73833156e-01 1.48411304e-01</_>
    <_>
      9.18801129e-01 -8.31789002e-02 -4.44612592e-01 8.03270221e-01
      9.50173914e-01 -4.31866020e-01 6.36803269e-01 2.33204055e+00</_>
    <_>
      -5.45746863e-01 -8.31789002e-02 -2.37761125e-01 1.37032068e+00
      -6.86286569e-01 1.01156294e+00 1.90362191e+00 -7.75431812e-01</_>
    <_>
      1.50462031e+00 -8.31789002e-02 1.00334764e+00 -1.27591491e+00
      -6.86286569e-01 -2.25661859e-01 -5.41277051e-01 1.32421160e+00</_>
    <_>
      -5.45746863e-01 -8.31789002e-02 7.96496153e-01 -1.27591491e+00
      -6.86286569e-01 -5.34967959e-01 -5.96356034e-01 -5.23474574e-01</_>
    <_>
      3.32981944e-01 -8.31789002e-02 7.96496153e-01 1.49633193e+00
      4.00777102e+00 8.44022155e-01 4.28726852e-01 6.44255653e-02</_>
    <_>
      6.25891566e-01 -8.31789002e-02 1.75941780e-01 4.25236553e-01
      1.27746594e+00 2.25409895e-01 -6.85094595e-01 5.68340003e-01</_>
    <_>
      -8.38656425e-01 -8.31789002e-02 2.79367507e-01 9.92287040e-01
      -6.86286569e-01 -5.60743570e-01 -1.15938675e+00 -2.71517396e-01</_>
    <_>
      -1.13156605e+00 -8.31789002e-02 -3.54738450e+00 -1.27591491e+00
      -6.86286569e-01 2.12521851e-01 1.38649070e+00 9.04282928e-01</_>
    <_>
      -5.45746863e-01 -8.31789002e-02 -7.54889786e-01 -1.27591491e+00
      -6.86286569e-01 -6.89621150e-01 -7.31047913e-02 -5.23474574e-01</_>
    <_>
      -1.13156605e+00 -8.31789002e-02 2.14103055e+00 1.62234306e+00
      4.33396935e-01 4.50414515e+00 -4.89257872e-01 -6.07460320e-01</_>
    <_>
      4.00723517e-02 -8.31789002e-02 8.48209023e-01 4.25236553e-01
      1.75008431e-01 -4.18978214e-01 -8.87051284e-01 -5.23474574e-01</_>
    <_>
      9.18801129e-01 -8.31789002e-02 7.25160539e-02 8.03270221e-01
      1.16549766e+00 -8.57161939e-01 -9.72729862e-01 3.16382796e-01</_>
    <_>
      -2.52837241e-01 -8.31789002e-02 -8.58315468e-01 -1.27591491e+00
      -6.86286569e-01 4.96052593e-01 -1.07676804e+00 -6.91446066e-01</_>
    <_>
      -5.45746863e-01 -8.31789002e-02 -1.16859269e+00 4.72028926e-02
      2.19905162e+00 2.89848685e-01 -9.26830590e-01 -9.43403304e-01</_>
    <_>
      -2.52837241e-01 -8.31789002e-02 2.79367507e-01 -1.27591491e+00
      -6.86286569e-01 -2.12774053e-01 -4.09699202e-01 -3.55503112e-01</_>
    <_>
      1.50462031e+00 -8.31789002e-02 7.25160539e-02 1.49633193e+00
      1.23330735e-01 1.22307442e-01 -3.20960641e-01 5.68340003e-01</_>
    <_>
      -5.45746863e-01 -8.31789002e-02 4.86218959e-01 1.05529261e+00
      8.81270349e-01 1.43685877e+00 2.27999568e+00 -1.87531650e-01</_>
    <_>
      -5.45746863e-01 -8.31789002e-02 2.79367507e-01 5.51247776e-01
      3.90332192e-01 3.20935361e-02 6.70462787e-01 -5.23474574e-01</_>
    <_>
      -5.45746863e-01 -8.31789002e-02 -8.58315468e-01 1.43332624e+00
      6.74559534e-01 5.21828234e-01 1.03153670e+00 -4.39488858e-01</_>
    <_>
      -8.38656425e-01 -8.31789002e-02 -2.37761125e-01 7.40264595e-01
      6.57333612e-01 3.80062580e-01 6.52102947e-01 -2.71517396e-01</_>
    <_>
      1.21171069e+00 -1.83123797e-01 7.25160539e-02 1.24430943e+00
      -2.64252007e-01 4.05838192e-01 6.91882372e-01 4.84354258e-01</_>
    <_>
      -1.13156605e+00 -8.31789002e-02 -9.61741209e-01 9.92287040e-01
      6.83172464e-01 7.28032112e-01 -7.31047913e-02 -9.43403304e-01</_>
    <_>
      -8.38656425e-01 -8.31789002e-02 -1.06516695e+00 1.55933750e+00
      9.84625697e-01 1.07600164e+00 4.10367012e-01 -7.75431812e-01</_>
    <_>
      1.50462031e+00 -8.31789002e-02 8.99921894e-01 -1.27591491e+00
      -6.86286569e-01 -9.47376311e-01 -7.61593342e-01 1.66015458e+00</_>
    <_>
      6.25891566e-01 -8.31789002e-02 -3.41186851e-01 6.77258968e-01
      3.47267449e-01 4.31613833e-01 6.52102947e-01 -4.39488858e-01</_>
    <_>
      9.18801129e-01 -8.31789002e-02 1.10677338e+00 -1.27591491e+00
      -6.86286569e-01 9.85787272e-01 -8.53446126e-02 6.52325749e-01</_>
    <_>
      -1.13156605e+00 -8.31789002e-02 -4.44612592e-01 5.51247776e-01
      3.43070340e+00 3.15623820e-01 1.81488359e+00 -1.02738905e+00</_>
    <_>
      -8.38656425e-01 -8.31789002e-02 1.31362474e+00 -1.27591491e+00
      -6.86286569e-01 8.36442709e-02 -6.54495180e-01 9.88268673e-01</_>
    <_>
      1.79752994e+00 -1.83123797e-01 7.25160539e-02 4.25236553e-01
      -6.86286569e-01 -5.99406779e-01 -1.03392875e+00 5.68340003e-01</_>
    <_>
      -1.13156605e+00 -8.31789002e-02 5.89644670e-01 1.05529261e+00
      1.12243283e+00 5.34715772e-01 9.94817376e-01 -8.59417558e-01</_>
    <_>
      -2.52837241e-01 -8.31789002e-02 5.89644670e-01 -3.30830753e-01
      -6.86286569e-01 3.20935361e-02 -8.53391767e-01 2.50001192e+00</_>
    <_>
      6.25891566e-01 -8.31789002e-02 -1.27201843e+00 -1.58027168e-02
      4.33396935e-01 -1.05047834e+00 1.02235699e+00 1.48411304e-01</_>
    <_>
      -2.52837241e-01 -1.83123797e-01 -6.51464045e-01 8.66275787e-01
      3.04202676e-01 -9.60263908e-01 1.42321014e+00 4.84354258e-01</_>
    <_>
      -5.45746863e-01 -8.31789002e-02 -8.58315468e-01 4.25236553e-01
      3.96470642e+00 8.44022155e-01 -7.30993867e-01 -6.91446066e-01</_>
    <_>
      -1.13156605e+00 -8.31789002e-02 -3.09096724e-02 -7.88083225e-02
      8.64044428e-01 -2.12774053e-01 2.79100728e+00 -6.91446066e-01</_>
    <_>
      -8.38656425e-01 -8.31789002e-02 1.00334764e+00 -7.88083225e-02
      -6.86286569e-01 -6.50957763e-01 -2.41402000e-01 -7.75431812e-01</_>
    <_>
      9.18801129e-01 -1.83123797e-01 4.86218959e-01 1.24430943e+00
      -2.72864968e-01 1.87504280e+00 -6.66734874e-01 7.36311495e-01</_>
    <_>
      9.18801129e-01 -8.31789002e-02 5.89644670e-01 6.77258968e-01
      -6.86286569e-01 4.83165056e-01 1.98318064e+00 8.20297241e-01</_>
    <_>
      -8.38656425e-01 -8.31789002e-02 6.93070412e-01 1.37032068e+00
      3.49099398e+00 1.08888924e+00 6.36803269e-01 -8.59417558e-01</_>
    <_>
      6.25891566e-01 -1.83123797e-01 -3.54738450e+00 -1.27591491e+00
      -6.86286569e-01 -3.02988440e-01 6.76527843e-02 -1.87531650e-01</_>
    <_>
      1.21171069e+00 -8.31789002e-02 8.99921894e-01 -1.27591491e+00
      -6.86286569e-01 -4.83417004e-01 -6.72854781e-01 -9.43403304e-01</_>
    <_>
      -1.13156605e+00 -8.31789002e-02 1.00334764e+00 1.05529261e+00
      -6.86286569e-01 3.92950654e-01 -8.62571657e-01 -3.55503112e-01</_>
    <_>
      -5.45746863e-01 -8.31789002e-02 2.79367507e-01 -2.04819545e-01
      1.40556633e-01 -7.15396523e-01 -1.40423715e-01 -5.23474574e-01</_>
    <_>
      -1.13156605e+00 -8.31789002e-02 1.10677338e+00 4.25236553e-01
      -6.86286569e-01 1.53996074e+00 6.33743346e-01 -8.59417558e-01</_>
    <_>
      6.25891566e-01 -1.83123797e-01 -9.61741209e-01 6.14253402e-01
      -1.35057762e-01 -4.44753587e-01 -3.76039743e-01 -8.59417558e-01</_>
    <_>
      -5.45746863e-01 -8.31789002e-02 1.10677338e+00 -1.27591491e+00
      -6.86286569e-01 -7.10086673e-02 9.97877300e-01 2.75196910e+00</_>
    <_>
      -5.45746863e-01 -8.31789002e-02 7.25160539e-02 7.40264595e-01
      1.31943688e-01 8.95572901e-01 1.24573302e+00 -8.59417558e-01</_>
    <_>
      -5.45746863e-01 -8.31789002e-02 -3.41186851e-01 -6.45858824e-01
      1.70811343e+00 -8.82937551e-01 1.23043334e+00 -9.43403304e-01</_>
    <_>
      3.32981944e-01 -8.31789002e-02 2.79367507e-01 -1.27591491e+00
      -6.86286569e-01 -4.31866020e-01 -9.97209430e-01 1.24022591e+00</_>
    <_>
      1.79752994e+00 -1.83123797e-01 7.25160539e-02 -1.27591491e+00
      -6.86286569e-01 3.80062580e-01 -8.53391767e-01 3.16382796e-01</_>
    <_>
      -5.45746863e-01 -8.31789002e-02 8.99921894e-01 9.92287040e-01
      3.47267449e-01 1.72038960e+00 -1.07676804e+00 -8.59417558e-01</_>
    <_>
      -8.38656425e-01 -8.31789002e-02 6.93070412e-01 -2.04819545e-01
      8.89883280e-01 -5.99406779e-01 -1.11348748e+00 -9.43403304e-01</_>
    <_>
      4.00723517e-02 -8.31789002e-02 -3.54738450e+00 -1.27591491e+00
      -6.86286569e-01 9.65323225e-02 -5.41277051e-01 -8.59417558e-01</_>
    <_>
      1.21171069e+00 -8.31789002e-02 3.82793248e-01 2.36219719e-01
      4.48148346e+00 -4.44753587e-01 6.36803269e-01 1.57616889e+00</_>
    <_>
      4.00723517e-02 -8.31789002e-02 -4.44612592e-01 8.03270221e-01
      9.67399836e-01 -1.05047834e+00 1.49052918e+00 -1.95601713e-02</_>
    <_>
      1.50462031e+00 -1.83123797e-01 5.89644670e-01 1.05529261e+00
      -6.86286569e-01 8.36442709e-02 -1.17162657e+00 6.52325749e-01</_>
    <_>
      6.25891566e-01 -1.83123797e-01 1.21019900e+00 -1.27591491e+00
      -6.86286569e-01 -1.57887638e+00 -8.90111208e-01 -4.39488858e-01</_>
    <_>
      6.25891566e-01 -1.83123797e-01 4.86218959e-01 -1.27591491e+00
      -6.86286569e-01 -1.22559652e-01 -2.96481103e-01 7.36311495e-01</_>
    <_>
      6.25891566e-01 -8.31789002e-02 1.75941780e-01 -1.27591491e+00
      -6.86286569e-01 -5.86518943e-01 -3.39320391e-01 -3.55503112e-01</_>
    <_>
      1.79752994e+00 -1.83123797e-01 -3.54738450e+00 -1.27591491e+00
      -6.86286569e-01 4.05838192e-01 -1.05534840e+00 -3.55503112e-01</_>
    <_>
      -1.13156605e+00 -1.83123797e-01 3.82793248e-01 -1.27591491e+00
      -6.86286569e-01 1.69461393e+00 -8.71751487e-01 1.07225442e+00</_>
    <_>
      -1.13156605e+00 -8.31789002e-02 -1.34335399e-01 6.77258968e-01
      9.32948053e-01 -1.74110875e-01 4.31732312e-02 -9.43403304e-01</_>
    <_>
      9.18801129e-01 -8.31789002e-02 -3.54738450e+00 -1.27591491e+00
      -6.86286569e-01 -4.14353991e+00 -5.32097161e-01 -7.75431812e-01</_>
    <_>
      1.21171069e+00 -8.31789002e-02 1.41705048e+00 -1.27591491e+00
      -6.86286569e-01 -4.14353991e+00 -7.55473435e-01 1.74414039e+00</_>
    <_>
      -5.45746863e-01 -8.31789002e-02 8.99921894e-01 1.37032068e+00
      6.91785455e-01 8.05359006e-01 -7.12634146e-01 -4.39488858e-01</_>
    <_>
      3.32981944e-01 -1.83123797e-01 5.89644670e-01 7.40264595e-01
      -6.86286569e-01 1.14044046e+00 -4.06639308e-01 3.16382796e-01</_>
    <_>
      4.00723517e-02 -1.83123797e-01 5.89644670e-01 -1.27591491e+00
      -6.86286569e-01 1.29509366e+00 -7.40173697e-01 -3.55503112e-01</_>
    <_>
      -8.38656425e-01 -8.31789002e-02 -1.58229554e+00 -1.41813934e-01
      3.47267449e-01 -1.16646802e+00 -2.19982356e-01 -6.07460320e-01</_>
    <_>
      6.25891566e-01 -1.83123797e-01 -4.44612592e-01 -7.88083225e-02
      -2.21187264e-01 -6.76733375e-01 5.54130524e-02 -1.03545912e-01</_>
    <_>
      1.79752994e+00 -1.83123797e-01 7.96496153e-01 1.74835432e+00
      1.35498250e+00 7.02256501e-01 1.59762728e+00 1.49218309e+00</_>
    <_>
      6.25891566e-01 -8.31789002e-02 -9.61741209e-01 1.10208504e-01
      8.29592645e-01 -6.50957763e-01 2.56763077e+00 -1.95601713e-02</_>
    <_>
      9.18801129e-01 -8.31789002e-02 -7.54889786e-01 7.40264595e-01
      8.20979655e-01 -2.12774053e-01 3.33868384e-01 4.84354258e-01</_>
    <_>
      -1.13156605e+00 -8.31789002e-02 -1.34335399e-01 1.18130386e+00
      -6.86286569e-01 1.26931810e+00 4.32710171e+00 -6.91446066e-01</_>
    <_>
      -1.13156605e+00 -8.31789002e-02 1.00334764e+00 6.14253402e-01
      -6.86286569e-01 4.49810959e-02 1.15087473e+00 4.00368512e-01</_>
    <_>
      -8.38656425e-01 -8.31789002e-02 3.82793248e-01 9.92287040e-01
      1.45833790e+00 5.60491383e-01 1.21207368e+00 -3.55503112e-01</_>
    <_>
      3.32981944e-01 -8.31789002e-02 -2.37761125e-01 8.03270221e-01
      2.11292219e+00 -1.22559652e-01 3.18568647e-01 -3.55503112e-01</_>
    <_>
      -1.13156605e+00 -1.83123797e-01 -3.09096724e-02 7.40264595e-01
      1.12243283e+00 9.98675346e-01 -2.99540997e-01 -6.91446066e-01</_>
    <_>
      -5.45746863e-01 -8.31789002e-02 -3.54738450e+00 -1.27591491e+00
      -6.86286569e-01 8.18246543e-01 -5.35157144e-01 6.52325749e-01</_>
    <_>
      -2.52837241e-01 -8.31789002e-02 -1.27201843e+00 -1.58027168e-02
      1.23330735e-01 -1.74110875e-01 -2.41402000e-01 -6.07460320e-01</_>
    <_>
      -5.45746863e-01 -1.83123797e-01 1.75941780e-01 -3.30830753e-01
      -3.17023620e-02 -2.64325023e-01 2.08410442e-01 -6.91446066e-01</_>
    <_>
      -8.38656425e-01 -8.31789002e-02 7.25160539e-02 -4.56841975e-01
      2.18073189e-01 -8.05610955e-01 -2.10856888e-02 -9.43403304e-01</_>
    <_>
      -1.13156605e+00 -1.83123797e-01 1.00334764e+00 5.51247776e-01
      -3.41768563e-01 6.12042606e-01 -1.37363806e-01 -1.02738905e+00</_>
    <_>
      -8.38656425e-01 -8.31789002e-02 1.00334764e+00 5.51247776e-01
      -6.86286569e-01 3.67175043e-01 1.30387211e+00 1.57616889e+00</_>
    <_>
      -8.38656425e-01 -8.31789002e-02 8.99921894e-01 6.14253402e-01
      2.15598679e+00 -2.64325023e-01 1.26409292e+00 -8.59417558e-01</_>
    <_>
      1.79752994e+00 8.81191730e+00 8.48209023e-01 7.40264595e-01
      -6.86286569e-01 3.54287475e-01 1.05907619e+00 1.91211188e+00</_>
    <_>
      1.50462031e+00 -1.83123797e-01 -3.09096724e-02 -1.27591491e+00
      -6.86286569e-01 -1.02470267e+00 -8.53391767e-01 2.08008337e+00</_>
    <_>
      -8.38656425e-01 -1.83123797e-01 -2.30627561e+00 -7.88083225e-02
      -4.70962793e-01 -5.60743570e-01 2.45129898e-01 -1.02738905e+00</_>
    <_>
      -8.38656425e-01 -8.31789002e-02 -1.27201843e+00 1.68534875e+00
      -1.43670708e-01 4.31613833e-01 -6.08595908e-01 -6.91446066e-01</_>
    <_>
      4.00723517e-02 -1.83123797e-01 -2.37761125e-01 -1.27591491e+00
      -6.86286569e-01 -1.94576904e-02 -9.72729862e-01 -1.87531650e-01</_>
    <_>
      6.25891566e-01 -8.31789002e-02 7.25160539e-02 -1.27591491e+00
      -6.86286569e-01 -1.61223069e-01 -4.61718321e-01 -1.87531650e-01</_>
    <_>
      6.25891566e-01 -8.31789002e-02 1.00334764e+00 -1.27591491e+00
      -6.86286569e-01 -5.60743570e-01 -7.09574223e-01 2.75196910e+00</_>
    <_>
      4.00723517e-02 -8.31789002e-02 3.31080377e-01 -1.27591491e+00
      -6.86286569e-01 2.08124661e+00 -7.37113714e-01 -1.03545912e-01</_>
    <_>
      -1.13156605e+00 -1.83123797e-01 1.62390196e+00 1.18130386e+00
      -6.61541596e-02 1.44974685e+00 1.65882623e+00 1.48411304e-01</_>
    <_>
      2.09043956e+00 -1.83123797e-01 1.93417919e+00 -1.27591491e+00
      -6.86286569e-01 8.82685304e-01 -8.83991301e-01 1.49218309e+00</_>
    <_>
      -1.13156605e+00 -8.31789002e-02 -3.54738450e+00 -1.27591491e+00
      -6.86286569e-01 1.42397130e+00 -6.39195323e-01 -6.07460320e-01</_>
    <_>
      4.00723517e-02 -1.83123797e-01 7.25160539e-02 7.40264595e-01
      7.16530383e-02 1.22307442e-01 -1.00644343e-01 -9.43403304e-01</_>
    <_>
      -8.38656425e-01 -1.83123797e-01 -3.41186851e-01 -1.41813934e-01
      -1.78122506e-01 -9.08712924e-01 2.41463351e+00 -6.91446066e-01</_>
    <_>
      1.21171069e+00 -1.83123797e-01 -7.03176916e-01 -1.58027168e-02
      -6.86286569e-01 -9.98927295e-01 -1.04922855e+00 7.36311495e-01</_>
    <_>
      -1.13156605e+00 -8.31789002e-02 7.25160539e-02 1.05529261e+00
      5.88430047e-01 9.34236526e-01 3.85887563e-01 -9.43403304e-01</_>
    <_>
      -1.13156605e+00 -1.83123797e-01 -4.44612592e-01 -1.27591491e+00
      -6.86286569e-01 4.05838192e-01 -6.60614967e-01 -6.91446066e-01</_>
    <_>
      3.32981944e-01 -8.31789002e-02 3.31080377e-01 -1.27591491e+00
      -6.86286569e-01 -2.90100634e-01 -1.37363806e-01 -4.39488858e-01</_>
    <_>
      -1.13156605e+00 -8.31789002e-02 -2.37761125e-01 1.73214108e-01
      8.02659914e-02 -4.14353991e+00 3.83138967e+00 -1.02738905e+00</_>
    <_>
      -5.45746863e-01 -8.31789002e-02 7.25160539e-02 1.11829829e+00
      2.41437531e+00 -5.34967959e-01 -4.34178770e-01 -3.55503112e-01</_>
    <_>
      2.67625880e+00 -1.83123797e-01 1.75941780e-01 2.12638783e+00
      -6.86286569e-01 5.73378980e-01 -9.20710683e-01 9.88268673e-01</_>
    <_>
      4.00723517e-02 -8.31789002e-02 4.86218959e-01 -1.27591491e+00
      -6.86286569e-01 9.65323225e-02 9.91757333e-01 -1.87531650e-01</_>
    <_>
      -8.38656425e-01 -8.31789002e-02 -2.37761125e-01 -3.93836379e-01
      2.88808751e+00 -1.08914149e+00 -2.75061458e-01 -1.02738905e+00</_>
    <_>
      4.00723517e-02 -8.31789002e-02 7.25160539e-02 1.18130386e+00
      5.72174788e+00 5.86266994e-01 5.66123915e+00 -1.87531650e-01</_>
    <_>
      -2.52837241e-01 -8.31789002e-02 -6.51464045e-01 1.18130386e+00
      -6.86286569e-01 -2.64325023e-01 2.39009902e-01 -2.71517396e-01</_>
    <_>
      -8.38656425e-01 -8.31789002e-02 1.52047622e+00 1.30731511e+00
      -1.86735466e-01 -1.94576904e-02 2.57681084e+00 -1.95601713e-02</_>
    <_>
      1.79752994e+00 9.21169662e+00 1.75941780e-01 -1.41813934e-01
      -6.86286569e-01 -1.16646802e+00 3.55288118e-01 1.91211188e+00</_>
    <_>
      4.00723517e-02 -8.31789002e-02 4.86218959e-01 -1.27591491e+00
      -6.86286569e-01 8.18246543e-01 1.25791788e-01 2.83595490e+00</_>
    <_>
      -8.38656425e-01 -8.31789002e-02 1.00334764e+00 1.18130386e+00
      2.61137933e-01 5.60491383e-01 1.76898444e+00 3.16382796e-01</_>
    <_>
      3.84789729e+00 -1.83123797e-01 1.75941780e-01 1.30731511e+00
      2.95589745e-01 1.12755287e+00 1.03459656e+00 1.15624022e+00</_>
    <_>
      -5.45746863e-01 -8.31789002e-02 6.93070412e-01 -1.41813934e-01
      -1.35057762e-01 -9.60263908e-01 8.63239467e-01 -1.02738905e+00</_>
    <_>
      4.00723517e-02 -8.31789002e-02 3.82793248e-01 -1.58027168e-02
      1.75008431e-01 -4.83417004e-01 -1.10430765e+00 -5.23474574e-01</_>
    <_>
      -8.38656425e-01 -1.83123797e-01 -4.44612592e-01 1.05529261e+00
      -4.03153114e-02 6.50705814e-01 9.21324193e-02 -9.43403304e-01</_>
    <_>
      -8.38656425e-01 -8.31789002e-02 -4.44612592e-01 1.73214108e-01
      6.60026884e+00 -2.64325023e-01 -2.47521907e-01 2.16406894e+00</_>
    <_>
      1.50462031e+00 -8.31789002e-02 1.31362474e+00 -1.27591491e+00
      -6.86286569e-01 7.07567111e-02 7.80620992e-01 9.88268673e-01</_>
    <_>
      6.25891566e-01 -8.31789002e-02 1.10677338e+00 1.18130386e+00
      -6.86286569e-01 4.57389444e-01 5.97024083e-01 -4.39488858e-01</_>
    <_>
      4.00723517e-02 -8.31789002e-02 7.25160539e-02 -1.27591491e+00
      -6.86286569e-01 -1.22559652e-01 2.15147805e+00 -9.43403304e-01</_>
    <_>
      -1.13156605e+00 -8.31789002e-02 4.86218959e-01 7.40264595e-01
      1.59614515e+00 1.84926713e+00 2.08109927e+00 2.08008337e+00</_>
    <_>
      6.25891566e-01 -1.83123797e-01 5.89644670e-01 9.92287040e-01
      -6.86286569e-01 9.85787272e-01 -9.23770547e-01 -4.39488858e-01</_>
    <_>
      -1.13156605e+00 -8.31789002e-02 -3.09096724e-02 1.37032068e+00
      1.46695089e+00 1.30798125e+00 -3.48500192e-01 -7.75431812e-01</_>
    <_>
      -1.13156605e+00 -1.83123797e-01 6.93070412e-01 -3.30830753e-01
      3.72012369e-02 -8.95825088e-01 -5.50456882e-01 -9.43403304e-01</_>
    <_>
      -2.52837241e-01 -8.31789002e-02 1.00334764e+00 1.30731511e+00
      1.33775663e+00 9.21348512e-01 6.88822448e-01 -5.23474574e-01</_>
    <_>
      9.18801129e-01 -8.31789002e-02 8.99921894e-01 -1.27591491e+00
      -6.86286569e-01 -2.25661859e-01 -9.60490048e-01 1.15624022e+00</_>
    <_>
      -8.38656425e-01 -8.31789002e-02 1.00334764e+00 1.30731511e+00
      7.77914941e-01 1.69461393e+00 8.60126019e-02 -6.07460320e-01</_>
    <_>
      -5.45746863e-01 -1.83123797e-01 -3.54738450e+00 1.73214108e-01
      -6.86286569e-01 -4.18978214e-01 8.99958909e-01 -6.91446066e-01</_>
    <_>
      -1.13156605e+00 -8.31789002e-02 7.96496153e-01 1.68534875e+00
      1.29469180e+00 1.75905275e+00 2.20650256e-01 -1.87531650e-01</_>
    <_>
      1.21171069e+00 -8.31789002e-02 1.75941780e-01 -1.27591491e+00
      -6.86286569e-01 -1.10202920e+00 1.10497546e+00 2.08008337e+00</_>
    <_>
      1.79752994e+00 -1.83123797e-01 -1.34335399e-01 -1.27591491e+00
      -6.86286569e-01 3.20935361e-02 -6.33075416e-01 7.36311495e-01</_>
    <_>
      4.00723517e-02 -8.31789002e-02 7.25160539e-02 -3.93836379e-01
      7.60689020e-01 -3.15876007e-01 -3.60740036e-01 -1.95601713e-02</_>
    <_>
      2.67625880e+00 -1.83123797e-01 6.93070412e-01 -7.88083225e-02
      2.61137933e-01 -1.28245783e+00 -7.15694070e-01 1.99609756e+00</_>
    <_>
      4.00723517e-02 -8.31789002e-02 7.96496153e-01 -1.27591491e+00
      -6.86286569e-01 -1.22559652e-01 -6.94274426e-01 -2.71517396e-01</_>
    <_>
      -5.45746863e-01 -8.31789002e-02 2.79367507e-01 3.62230927e-01
      1.07936823e+00 1.35195494e-01 3.43048275e-01 -6.91446066e-01</_>
    <_>
      -8.38656425e-01 -8.31789002e-02 6.93070412e-01 1.62234306e+00
      8.64044428e-01 1.79771590e+00 -4.40298676e-01 1.07225442e+00</_>
    <_>
      1.21171069e+00 -8.31789002e-02 3.82793248e-01 1.18130386e+00
      2.95589745e-01 -5.47855794e-01 4.92985666e-01 -1.87531650e-01</_>
    <_>
      -1.13156605e+00 -8.31789002e-02 -2.37761125e-01 -1.41813934e-01
      1.06104836e-01 3.54287475e-01 7.53081441e-01 -8.59417558e-01</_>
    <_>
      -1.13156605e+00 -8.31789002e-02 -1.47886980e+00 9.29281414e-01
      7.60689020e-01 1.41108322e+00 5.53578186e+00 -1.95601713e-02</_>
    <_>
      9.18801129e-01 -8.31789002e-02 -4.44612592e-01 2.36219719e-01
      -6.86286569e-01 -7.28284359e-01 -5.59636712e-01 -3.55503112e-01</_>
    <_>
      -2.52837241e-01 -1.83123797e-01 7.25160539e-02 -1.27591491e+00
      -6.86286569e-01 4.49810959e-02 -6.39195323e-01 4.84354258e-01</_>
    <_>
      -1.13156605e+00 -8.31789002e-02 3.82793248e-01 9.92287040e-01
      -6.86286569e-01 2.24878740e+00 -3.51560205e-01 -6.07460320e-01</_>
    <_>
      9.18801129e-01 -8.31789002e-02 7.96496153e-01 -1.27591491e+00
      -6.86286569e-01 1.03733850e+00 6.64342821e-01 3.16382796e-01</_>
    <_>
      1.21171069e+00 -8.31789002e-02 -2.37761125e-01 -1.27591491e+00
      -6.86286569e-01 -1.14069271e+00 5.90904057e-01 -1.03545912e-01</_>
    <_>
      1.21171069e+00 -8.31789002e-02 7.25160539e-02 -1.27591491e+00
      -6.86286569e-01 -2.12774053e-01 1.45686960e+00 -1.95601713e-02</_>
    <_>
      6.25891566e-01 -8.31789002e-02 1.10677338e+00 -8.34875643e-01
      2.12153506e+00 -1.61753953e+00 3.15508723e-01 2.24805474e+00</_>
    <_>
      1.79752994e+00 -1.83123797e-01 -3.09096724e-02 -1.27591491e+00
      -6.86286569e-01 -6.63845539e-01 -7.15694070e-01 2.32397050e-01</_>
    <_>
      -1.13156605e+00 -8.31789002e-02 2.79367507e-01 -1.41813934e-01
      -1.43670708e-01 -2.12774053e-01 -5.93296170e-01 -6.07460320e-01</_>
    <_>
      1.79752994e+00 -1.83123797e-01 1.52047622e+00 -1.27591491e+00
      -6.86286569e-01 -1.05047834e+00 1.66188598e+00 6.44255653e-02</_>
    <_>
      2.09043956e+00 -1.83123797e-01 7.96496153e-01 9.29281414e-01
      4.33396935e-01 -4.96304810e-01 -6.69794917e-01 7.36311495e-01</_>
    <_>
      -8.38656425e-01 -8.31789002e-02 -9.61741209e-01 -2.67825156e-01
      2.54356956e+00 -8.05610955e-01 5.38884878e-01 -7.75431812e-01</_>
    <_>
      -1.13156605e+00 -8.31789002e-02 3.82793248e-01 1.43332624e+00
      1.51001561e+00 2.02969599e+00 -6.72854781e-01 -6.07460320e-01</_>
    <_>
      3.26207805e+00 -1.83123797e-01 7.25160539e-02 7.40264595e-01
      2.61137933e-01 6.37817740e-01 -9.97209430e-01 8.20297241e-01</_>
    <_>
      2.96916842e+00 -1.83123797e-01 -3.41186851e-01 6.14253402e-01
      -6.86286569e-01 1.86746225e-01 -8.16672444e-01 4.00368512e-01</_>
    <_>
      -8.38656425e-01 -8.31789002e-02 -7.54889786e-01 -1.27591491e+00
      -6.86286569e-01 -7.02508748e-01 6.36803269e-01 2.41602635e+00</_>
    <_>
      1.50462031e+00 -8.31789002e-02 -6.51464045e-01 -1.27591491e+00
      -6.86286569e-01 1.48083061e-01 1.94340134e+00 -1.95601713e-02</_>
    <_>
      1.50462031e+00 -8.31789002e-02 2.79367507e-01 8.03270221e-01
      -1.69509560e-01 -8.05610955e-01 -5.78050576e-02 4.01175547e+00</_>
    <_>
      3.32981944e-01 -1.83123797e-01 -4.44612592e-01 -1.27591491e+00
      -6.86286569e-01 -6.89621150e-01 -6.45315230e-01 -5.23474574e-01</_>
    <_>
      -1.13156605e+00 -8.31789002e-02 -3.54738450e+00 -1.27591491e+00
      -6.86286569e-01 3.20935361e-02 -1.03392875e+00 -7.75431812e-01</_>
    <_>
      4.00723517e-02 -8.31789002e-02 -3.41186851e-01 -5.19847572e-01
      -6.86286569e-01 -3.15876007e-01 -3.02601010e-01 -2.71517396e-01</_>
    <_>
      -2.52837241e-01 -8.31789002e-02 -8.58315468e-01 1.11829829e+00
      -6.86286569e-01 6.50705814e-01 5.29705107e-01 -7.75431812e-01</_>
    <_>
      6.25891566e-01 -8.31789002e-02 1.75941780e-01 7.40264595e-01
      9.50173914e-01 7.15144575e-01 -4.73958135e-01 1.82812607e+00</_>
    <_>
      -1.13156605e+00 -8.31789002e-02 -3.41186851e-01 6.14253402e-01
      -4.89282608e-02 5.73378980e-01 8.50999832e-01 -6.91446066e-01</_>
    <_>
      -8.38656425e-01 -8.31789002e-02 6.93070412e-01 1.24430943e+00
      -6.86286569e-01 1.17910361e+00 3.92007381e-01 -4.39488858e-01</_>
    <_>
      6.25891566e-01 -8.31789002e-02 4.86218959e-01 1.30731511e+00
      5.19526422e-01 1.79771590e+00 2.81849176e-01 -5.23474574e-01</_>
    <_>
      -2.52837241e-01 -8.31789002e-02 1.21019900e+00 1.81135988e+00
      6.48720682e-01 5.47603846e-01 1.49664891e+00 -1.03545912e-01</_>
    <_>
      1.50462031e+00 -8.31789002e-02 4.86218959e-01 6.14253402e-01
      1.75008431e-01 -1.61223069e-01 -9.63549972e-01 9.88268673e-01</_>
    <_>
      -1.13156605e+00 -8.31789002e-02 1.00334764e+00 1.49633193e+00
      3.70631790e+00 1.43685877e+00 -7.86072910e-01 -6.07460320e-01</_>
    <_>
      9.18801129e-01 -8.31789002e-02 1.10677338e+00 -1.27591491e+00
      -6.86286569e-01 -2.90100634e-01 -8.22792292e-01 1.40819740e+00</_>
    <_>
      3.32981944e-01 -1.83123797e-01 6.93070412e-01 1.30731511e+00
      -3.24542671e-01 4.70276982e-01 -9.88029599e-01 1.48411304e-01</_>
    <_>
      -2.52837241e-01 -8.31789002e-02 -7.54889786e-01 4.72028926e-02
      6.74559534e-01 -1.61223069e-01 -5.71876526e-01 -7.75431812e-01</_>
    <_>
      -2.52837241e-01 -8.31789002e-02 6.93070412e-01 1.74835432e+00
      3.31873512e+00 8.05359006e-01 5.07372952e+00 -6.91446066e-01</_>
    <_>
      3.32981944e-01 -8.31789002e-02 4.86218959e-01 -1.27591491e+00
      -6.86286569e-01 1.65595078e+00 -8.83991301e-01 1.15624022e+00</_>
    <_>
      1.50462031e+00 -8.31789002e-02 -8.58315468e-01 -1.27591491e+00
      -6.86286569e-01 -1.22559652e-01 -3.02601010e-01 7.36311495e-01</_>
    <_>
      -8.38656425e-01 -1.83123797e-01 -3.09096724e-02 4.72028926e-02
      -6.86286569e-01 -6.38069928e-01 1.88526249e+00 -9.43403304e-01</_>
    <_>
      -8.38656425e-01 -8.31789002e-02 -5.48038304e-01 9.92287040e-01
      1.23330735e-01 1.48083061e-01 -6.66734874e-01 -8.59417558e-01</_>
    <_>
      4.00723517e-02 -8.31789002e-02 1.75941780e-01 -1.27591491e+00
      -6.86286569e-01 -4.18978214e-01 -3.14840823e-01 1.07225442e+00</_>
    <_>
      4.00723517e-02 -8.31789002e-02 5.89644670e-01 -1.27591491e+00
      -6.86286569e-01 1.92054845e-02 1.74751073e-01 -5.23474574e-01</_>
    <_>
      4.00723517e-02 -8.31789002e-02 -3.09096724e-02 -1.27591491e+00
      -6.86286569e-01 3.67175043e-01 -2.59761721e-01 -3.55503112e-01</_>
    <_>
      -8.38656425e-01 -1.83123797e-01 -7.03176916e-01 -1.27591491e+00
      -6.86286569e-01 -1.68197834e+00 -6.75914824e-01 -1.02738905e+00</_>
    <_>
      -1.13156605e+00 -8.31789002e-02 6.93070412e-01 -3.93836379e-01
      9.07109201e-01 -1.94576904e-02 6.21503532e-01 -9.43403304e-01</_>
    <_>
      -8.38656425e-01 -8.31789002e-02 -3.54738450e+00 -1.27591491e+00
      -6.86286569e-01 1.43685877e+00 -6.02476001e-01 6.52325749e-01</_>
    <_>
      -5.45746863e-01 -1.83123797e-01 -1.86048269e-01 4.88242149e-01
      -1.17831856e-01 5.99154592e-01 4.59326297e-01 -7.75431812e-01</_>
    <_>
      4.00723517e-02 -8.31789002e-02 1.75941780e-01 -5.19847572e-01
      6.30400851e-02 -1.29534566e+00 -4.86252382e-02 3.16382796e-01</_>
    <_>
      6.25891566e-01 -1.83123797e-01 5.89644670e-01 -1.27591491e+00
      -6.86286569e-01 -1.15358019e+00 -1.20834589e+00 -1.03545912e-01</_>
    <_>
      -2.52837241e-01 -1.83123797e-01 -3.54738450e+00 -1.27591491e+00
      -6.86286569e-01 -4.14353991e+00 -9.32950497e-01 -9.43403304e-01</_>
    <_>
      3.32981944e-01 -8.31789002e-02 -3.09096724e-02 -1.27591491e+00
      -6.86286569e-01 -7.92723119e-01 -5.71876526e-01 -2.71517396e-01</_>
    <_>
      9.18801129e-01 -1.83123797e-01 3.82793248e-01 7.40264595e-01
      9.74918902e-02 1.12755287e+00 1.19983387e+00 -1.03545912e-01</_>
    <_>
      -2.52837241e-01 -8.31789002e-02 -3.09096724e-02 1.73214108e-01
      1.13623887e-02 -7.10086673e-02 1.43850994e+00 -4.39488858e-01</_>
    <_>
      6.25891566e-01 -8.31789002e-02 1.21019900e+00 -1.27591491e+00
      -6.86286569e-01 4.31613833e-01 -6.14715815e-01 2.75196910e+00</_>
    <_>
      -5.45746863e-01 -8.31789002e-02 -1.06516695e+00 7.40264595e-01
      7.34850168e-01 1.28220558e+00 1.25791788e-01 -6.07460320e-01</_>
    <_>
      3.32981944e-01 -8.31789002e-02 6.93070412e-01 -1.27591491e+00
      -6.86286569e-01 -4.14353991e+00 4.92985666e-01 3.00392652e+00</_>
    <_>
      2.67625880e+00 -1.83123797e-01 1.00334764e+00 1.05529261e+00
      5.19526422e-01 1.08888924e+00 2.12699842e+00 4.84354258e-01</_>
    <_>
      4.00723517e-02 -8.31789002e-02 8.99921894e-01 6.77258968e-01
      -6.86286569e-01 -5.34967959e-01 -1.83262989e-01 2.50001192e+00</_>
    <_>
      -8.38656425e-01 -8.31789002e-02 2.79367507e-01 -1.27591491e+00
      -6.86286569e-01 5.99154592e-01 -1.19610608e+00 4.00368512e-01</_>
    <_>
      -5.45746863e-01 -1.83123797e-01 -9.61741209e-01 1.73214108e-01
      -3.17023620e-02 -2.25661859e-01 1.49664891e+00 -1.02738905e+00</_>
    <_>
      -2.52837241e-01 -8.31789002e-02 1.75941780e-01 2.99225330e-01
      9.50173914e-01 3.20935361e-02 2.14530438e-01 -5.23474574e-01</_>
    <_>
      -1.13156605e+00 -8.31789002e-02 6.93070412e-01 -1.27591491e+00
      -6.86286569e-01 1.07600164e+00 3.98438740e+00 9.04282928e-01</_>
    <_>
      -2.52837241e-01 -8.31789002e-02 -7.54889786e-01 -1.27591491e+00
      -6.86286569e-01 -8.44274104e-01 -2.35282093e-01 -9.43403304e-01</_>
    <_>
      -8.38656425e-01 -8.31789002e-02 -4.44612592e-01 7.40264595e-01
      -6.86286569e-01 4.70276982e-01 1.07432149e-01 -1.02738905e+00</_>
    <_>
      -1.13156605e+00 -8.31789002e-02 3.82793248e-01 -1.27591491e+00
      -6.86286569e-01 4.57389444e-01 -8.59511733e-01 -6.07460320e-01</_>
    <_>
      1.79752994e+00 9.01180744e+00 -3.41186851e-01 -1.27591491e+00
      -6.86286569e-01 -8.05610955e-01 -9.54370141e-01 -1.87531650e-01</_>
    <_>
      1.21171069e+00 -8.31789002e-02 4.86218959e-01 7.40264595e-01
      -6.86286569e-01 3.20935361e-02 -1.09824248e-01 9.88268673e-01</_>
    <_>
      4.00723517e-02 -8.31789002e-02 8.99921894e-01 -1.27591491e+00
      -6.86286569e-01 1.52707314e+00 5.08285403e-01 -9.43403304e-01</_>
    <_>
      -2.52837241e-01 -8.31789002e-02 -5.48038304e-01 -1.27591491e+00
      -6.86286569e-01 -7.10086673e-02 -1.00332928e+00 -7.75431812e-01</_>
    <_>
      2.09043956e+00 8.31219292e+00 2.79367507e-01 -1.27591491e+00
      -6.86286569e-01 -2.64325023e-01 -5.47396898e-01 1.48411304e-01</_>
    <_>
      2.38334918e+00 -1.83123797e-01 7.96496153e-01 8.03270221e-01
      2.18073189e-01 -2.77212828e-01 2.78735012e-02 1.07225442e+00</_>
    <_>
      1.50462031e+00 -8.31789002e-02 6.93070412e-01 7.40264595e-01
      8.20979655e-01 2.64073074e-01 -6.69794917e-01 2.32397050e-01</_>
    <_>
      -2.52837241e-01 -1.83123797e-01 4.86218959e-01 -1.27591491e+00
      -6.86286569e-01 1.35953248e+00 2.45129898e-01 -1.02738905e+00</_>
    <_>
      3.32981944e-01 -8.31789002e-02 1.75941780e-01 -7.88083225e-02
      8.20979655e-01 -8.18498731e-01 3.30808461e-01 1.49218309e+00</_>
    <_>
      1.21171069e+00 -8.31789002e-02 1.75941780e-01 -1.27591491e+00
      -6.86286569e-01 9.65323225e-02 -6.39195323e-01 4.84354258e-01</_>
    <_>
      -8.38656425e-01 -1.83123797e-01 -6.51464045e-01 6.14253402e-01
      -2.03961357e-01 1.48083061e-01 2.36261463e+00 -7.75431812e-01</_>
    <_>
      -8.38656425e-01 -8.31789002e-02 -2.37761125e-01 6.14253402e-01
      8.64044428e-01 2.51185030e-01 -4.61718321e-01 4.00368512e-01</_>
    <_>
      4.00723517e-02 -1.83123797e-01 -4.44612592e-01 7.40264595e-01
      -6.86286569e-01 4.18726265e-01 -5.96356034e-01 -4.39488858e-01</_>
    <_>
      -2.52837241e-01 -8.31789002e-02 7.96496153e-01 8.03270221e-01
      3.39625168e+00 4.57389444e-01 -6.75914824e-01 -9.43403304e-01</_>
    <_>
      3.32981944e-01 -8.31789002e-02 1.52047622e+00 -1.27591491e+00
      -6.86286569e-01 2.67408371e+00 -8.25852215e-01 -4.39488858e-01</_>
    <_>
      -1.13156605e+00 -8.31789002e-02 -3.54738450e+00 -1.27591491e+00
      -6.86286569e-01 1.92054845e-02 1.10191548e+00 -2.71517396e-01</_>
    <_>
      1.21171069e+00 -8.31789002e-02 2.79367507e-01 1.24430943e+00
      1.16549766e+00 9.34236526e-01 5.57244658e-01 8.20297241e-01</_>
    <_>
      2.38334918e+00 8.61202717e+00 2.79367507e-01 1.24430943e+00
      -2.21187264e-01 4.05838192e-01 -3.08720917e-01 1.24022591e+00</_>
    <_>
      1.79752994e+00 -1.83123797e-01 5.89644670e-01 -1.27591491e+00
      -6.86286569e-01 -6.50957763e-01 2.94400454e+00 1.99609756e+00</_>
    <_>
      -8.38656425e-01 -8.31789002e-02 1.00334764e+00 2.36219719e-01
      5.62591195e-01 3.02736253e-01 -2.32222185e-01 5.68340003e-01</_>
    <_>
      -8.38656425e-01 -1.83123797e-01 -3.09096724e-02 -7.71870017e-01
      -6.86286569e-01 -9.86039519e-01 2.01684022e+00 2.32397050e-01</_>
    <_>
      -5.45746863e-01 -8.31789002e-02 -5.48038304e-01 9.29281414e-01
      8.88789371e-02 -1.33400905e+00 -9.91089523e-01 -9.43403304e-01</_>
    <_>
      -2.52837241e-01 -8.31789002e-02 -1.34335399e-01 2.99225330e-01
      -6.86286569e-01 4.49810959e-02 -6.82034612e-01 -9.43403304e-01</_>
    <_>
      2.09043956e+00 -1.83123797e-01 3.82793248e-01 -1.27591491e+00
      -6.86286569e-01 1.35195494e-01 -1.80203080e-01 1.48411304e-01</_>
    <_>
      -2.52837241e-01 -8.31789002e-02 -3.41186851e-01 -4.56841975e-01
      -2.72864968e-01 -1.19224370e+00 6.09263718e-01 -8.59417558e-01</_>
    <_>
      3.32981944e-01 -8.31789002e-02 8.99921894e-01 6.14253402e-01
      2.18073189e-01 8.95572901e-01 -6.97334468e-01 7.36311495e-01</_>
    <_>
      2.38334918e+00 -1.83123797e-01 6.93070412e-01 1.43332624e+00
      2.11292219e+00 9.08460915e-01 1.50271431e-01 2.08008337e+00</_>
    <_>
      4.00723517e-02 -8.31789002e-02 4.86218959e-01 1.18130386e+00
      1.69950056e+00 6.24930203e-01 -6.57555044e-01 -1.87531650e-01</_>
    <_>
      -2.52837241e-01 -8.31789002e-02 1.62390196e+00 9.29281414e-01
      1.38082135e+00 3.24114490e+00 1.22737348e+00 -9.43403304e-01</_>
    <_>
      6.25891566e-01 -1.83123797e-01 -1.34335399e-01 6.14253402e-01
      -6.86286569e-01 -7.66947508e-01 -5.07617593e-01 6.52325749e-01</_>
    <_>
      -8.38656425e-01 -1.83123797e-01 -4.44612592e-01 1.37032068e+00
      -2.72864968e-01 1.46263444e+00 6.09263718e-01 -8.59417558e-01</_>
    <_>
      -8.38656425e-01 -8.31789002e-02 -9.61741209e-01 -7.88083225e-02
      -6.86286569e-01 -4.96304810e-01 -9.11530852e-01 -3.55503112e-01</_>
    <_>
      9.18801129e-01 -8.31789002e-02 3.82793248e-01 -2.04819545e-01
      2.61137933e-01 -1.07625389e+00 -3.94454189e-02 -1.87531650e-01</_>
    <_>
      9.18801129e-01 -8.31789002e-02 1.36533761e+00 6.77258968e-01
      -6.86286569e-01 2.64073074e-01 -9.63549972e-01 2.24805474e+00</_>
    <_>
      -1.13156605e+00 -1.83123797e-01 -4.44612592e-01 -1.27591491e+00
      -6.86286569e-01 -1.34689665e+00 7.83680916e-01 2.83595490e+00</_>
    <_>
      9.18801129e-01 -8.31789002e-02 2.79367507e-01 3.62230927e-01
      4.76461679e-01 -7.92723119e-01 5.14405429e-01 1.49218309e+00</_>
    <_>
      4.00723517e-02 -8.31789002e-02 1.75941780e-01 5.51247776e-01
      3.98945123e-01 -1.09672092e-01 -4.31118846e-01 3.16382796e-01</_>
    <_>
      -2.52837241e-01 -1.83123797e-01 2.79367507e-01 -2.67825156e-01
      4.58141901e-02 -2.25661859e-01 2.20650256e-01 4.00368512e-01</_>
    <_>
      -8.38656425e-01 -1.83123797e-01 2.79367507e-01 1.30731511e+00
      -1.95348412e-01 1.82349157e+00 1.88832223e+00 -1.03545912e-01</_>
    <_>
      3.32981944e-01 -8.31789002e-02 7.96496153e-01 1.30731511e+00
      1.12243283e+00 9.34236526e-01 -2.56701738e-01 -3.55503112e-01</_>
    <_>
      2.67625880e+00 -1.83123797e-01 1.75941780e-01 -1.27591491e+00
      -6.86286569e-01 -1.22559652e-01 -4.25053276e-02 4.00368512e-01</_>
    <_>
      -5.45746863e-01 -8.31789002e-02 -5.48038304e-01 2.36219719e-01
      1.68227458e+00 -5.73631167e-01 3.43053675e+00 -6.91446066e-01</_>
    <_>
      1.21171069e+00 -1.83123797e-01 1.75941780e-01 -1.27591491e+00
      -6.86286569e-01 5.99154592e-01 1.86936818e-02 1.99609756e+00</_>
    <_>
      1.50462031e+00 -8.31789002e-02 7.25160539e-02 8.03270221e-01
      2.77611923e+00 4.18726265e-01 -6.02476001e-01 6.44255653e-02</_>
    <_>
      -1.13156605e+00 -8.31789002e-02 1.10677338e+00 1.62234306e+00
      -6.86286569e-01 1.28220558e+00 -3.30140561e-01 -1.02738905e+00</_>
    <_>
      6.25891566e-01 -1.83123797e-01 -3.09096724e-02 1.30731511e+00
      -6.86286569e-01 8.82685304e-01 7.59201288e-01 6.52325749e-01</_>
    <_>
      3.32981944e-01 -8.31789002e-02 1.83075345e+00 -1.27591491e+00
      -6.86286569e-01 7.15144575e-01 -1.00332928e+00 1.57616889e+00</_>
    <_>
      -1.13156605e+00 -1.83123797e-01 5.89644670e-01 -1.27591491e+00
      -6.86286569e-01 3.20935361e-02 3.73647749e-01 -5.23474574e-01</_>
    <_>
      1.21171069e+00 -8.31789002e-02 -3.41186851e-01 3.62230927e-01
      3.57712364e+00 2.38297462e-01 1.96170628e-01 1.07225442e+00</_>
    <_>
      -2.52837241e-01 -8.31789002e-02 8.99921894e-01 4.25236553e-01
      6.57333612e-01 1.48083061e-01 2.06579947e+00 1.57616889e+00</_>
    <_>
      -5.45746863e-01 -8.31789002e-02 -4.44612592e-01 -1.27591491e+00
      -6.86286569e-01 -7.66947508e-01 -4.15819108e-01 -8.59417558e-01</_>
    <_>
      6.25891566e-01 -8.31789002e-02 -4.44612592e-01 4.25236553e-01
      -6.86286569e-01 -9.21600699e-01 -8.35032105e-01 -5.23474574e-01</_>
    <_>
      6.25891566e-01 -8.31789002e-02 5.89644670e-01 1.05529261e+00
      2.50050473e+00 1.81060398e+00 -7.37113714e-01 1.07225442e+00</_>
    <_>
      -5.45746863e-01 -8.31789002e-02 5.89644670e-01 -1.27591491e+00
      -6.86286569e-01 1.38530803e+00 6.55163050e-01 -1.02738905e+00</_>
    <_>
      3.32981944e-01 -8.31789002e-02 2.79367507e-01 -1.27591491e+00
      -6.86286569e-01 -9.34488535e-01 8.11220467e-01 1.99609756e+00</_>
    <_>
      -1.13156605e+00 -8.31789002e-02 -4.44612592e-01 9.29281414e-01
      7.52076089e-01 3.15623820e-01 1.68631077e-01 -1.02738905e+00</_>
    <_>
      3.32981944e-01 -8.31789002e-02 1.75941780e-01 1.43332624e+00
      -4.03153114e-02 5.08940160e-01 -6.60614967e-01 -1.95601713e-02</_>
    <_>
      1.21171069e+00 -8.31789002e-02 4.86218959e-01 -1.27591491e+00
      -6.86286569e-01 2.02969599e+00 -1.04616857e+00 8.20297241e-01</_>
    <_>
      -8.38656425e-01 -8.31789002e-02 -6.51464045e-01 5.51247776e-01
      6.22881830e-01 -4.44753587e-01 9.85637486e-01 -1.02738905e+00</_>
    <_>
      -2.52837241e-01 -8.31789002e-02 -2.37761125e-01 -1.27591491e+00
      -6.86286569e-01 -1.16646802e+00 -5.04557610e-01 -9.43403304e-01</_>
    <_>
      6.25891566e-01 -8.31789002e-02 3.82793248e-01 -1.27591491e+00
      -6.86286569e-01 2.12521851e-01 -1.09512782e+00 1.74414039e+00</_>
    <_>
      4.00723517e-02 -8.31789002e-02 -1.34335399e-01 -1.27591491e+00
      -6.86286569e-01 -3.23454961e-02 -2.41456907e-02 -3.55503112e-01</_>
    <_>
      4.00723517e-02 -8.31789002e-02 1.21019900e+00 -1.27591491e+00
      -6.86286569e-01 -1.22559652e-01 1.83930799e-01 2.33204055e+00</_>
    <_>
      4.00723517e-02 -1.83123797e-01 8.99921894e-01 -7.88083225e-02
      -6.86286569e-01 -3.67427230e-01 -4.95377779e-01 6.44255653e-02</_>
    <_>
      4.00723517e-02 -1.83123797e-01 -5.48038304e-01 1.10208504e-01
      -2.64252007e-01 -5.60743570e-01 -5.29037237e-01 -4.39488858e-01</_>
    <_>
      4.00723517e-02 -8.31789002e-02 -3.09096724e-02 -1.27591491e+00
      -6.86286569e-01 -3.28763813e-01 7.04122186e-01 6.44255653e-02</_>
    <_>
      1.50462031e+00 -8.31789002e-02 2.79367507e-01 6.77258968e-01
      -6.86286569e-01 1.52707314e+00 -2.32222185e-01 8.20297241e-01</_>
    <_>
      -2.52837241e-01 -8.31789002e-02 -5.48038304e-01 1.10208504e-01
      9.84625697e-01 9.65323225e-02 3.49168092e-01 2.32397050e-01</_>
    <_>
      3.32981944e-01 -8.31789002e-02 7.25160539e-02 -1.27591491e+00
      -6.86286569e-01 -3.02988440e-01 -8.31972182e-01 2.50001192e+00</_></support_vectors>
  <decision_functions>
    <_>
      <sv_count>458</sv_count>
      <rho>-7.5082032353438841e-02</rho>
      <alpha>
        3.3346329149382786e-01 4.3264779446655344e-01
        6.0693198677791003e+00 9.1276679016816753e-01
        1.3954619985438275e+00 9.8981518310501615e-01
        4.2363138912575122e+00 4.6090742827558060e+00
        4.8511545994197286e-01 4.2044516629972124e+00
        2.9655231221716116e-01 6.9626725305693626e-01
        4.2108764151020592e+00 2.4649209564945185e+00
        9.8258253475571991e+00 2.2048382076726285e+00
        4.8119574759207989e-01 9.2892676720638123e-01
        1.8231703426647128e+00 2.4626223767312627e+00
        1.1577468288818464e+00 8.0702134239171108e-01
        3.8131691463363557e+00 4.3401829331839812e+00
        1.2875675113060367e+00 2.5076719846175886e+00
        1.7222048853539609e+00 10. 1.0623889380494962e+00
        1.3289366635264106e+00 2.3949269559785531e+00
        3.3050495865393783e+00 5.0710757119336893e+00
        6.0970719643045088e+00 6.2119181170589748e+00
        2.0916646003583533e-01 7.4849507290072177e+00
        5.1496696922477680e-01 6.4818204738887513e+00
        8.7764168512524110e-01 9.5498955710637068e-01
        9.3792791643951812e-01 1.0515062457704443e+00
        1.9363643094462959e+00 6.9212194741013178e-01
        8.2777210482178276e-01 8.4788799598219828e+00
        3.6424965098943760e-02 2.4420989594310041e-01
        4.3322093011621265e-01 8.4475357805659246e-01
        2.9632317130171151e+00 4.0552331684390364e-01
        1.6002018825214886e-01 7.1405163299802341e+00
        6.2195465849745990e-01 6.6417901390139988e+00
        3.0212810218089268e+00 9.2472979835929869e-01
        1.3223367084964408e+00 1.2686201072442156e+00
        5.3432893668744530e-01 6.4107042874321807e-01
        1.9425820921583894e+00 1.3062624017745692e+00
        4.9413658499825779e+00 2.5408926065033790e+00
        9.6480773908864570e-01 10. 1.8007483691922224e+00
        8.1699750724962228e-01 1.7490314643057359e-01 10.
        3.3036031480143699e+00 3.6318484277573482e-01
        3.1088528619388855e-01 1.0700929176777514e+00
        7.0226272275586865e-01 9.4209064097815842e-01
        2.3954945321994900e+00 6.0779517919610404e-01
        6.0060397744349565e+00 1.3617511228040247e+00
        7.9539109006701625e-01 3.1397856055675386e+00
        9.1025158962507691e-01 4.4882027416771368e+00
        1.4230451576202805e+00 6.7888426025026272e+00
        9.1588519674237434e-01 4.3802848293002725e+00
        5.9692066665978316e-01 5.6440199082138935e+00
        2.3417132089228165e-01 10. 1.3437177994119234e+00
        1.2842382038042497e+00 6.0992819404574341e+00
        2.4063433692879284e+00 1.9510862656478463e+00
        1.5664369803359981e+00 1.1338859850748881e+00
        9.5953307923991837e-01 5.5084809558699543e-01
        3.2873022065642741e+00 2.3178498194105144e+00
        6.8070397702387266e+00 3.3386594312970015e+00
        2.6540579864175462e+00 1.8869693311058118e+00
        1.0450493974987585e+00 3.1602024631952266e+00
        4.9553709695111641e+00 1.0039615429302606e+00
        1.0553182699988495e+00 1.7522503610583484e+00
        9.0636763263213915e-01 4.9571600736387742e+00
        1.2878849672975987e-01 8.9487105616755347e-01
        3.1164399129024012e-01 8.7263204200643574e-01
        1.0710176816824752e+00 9.3741199759399252e-01
        1.7447620322785551e+00 10. 2.0943943161212930e+00
        1.2647563964891833e+00 1.3855815792322392e+00
        9.4944457512330138e-01 4.3209294049536212e-01
        3.0830729254451730e+00 1.8570007023391901e+00
        2.3016936768741387e+00 3.7118991445945939e+00
        6.4524170773496470e-01 1.1717724760081947e+00
        6.1087332759036472e-01 2.2118716836217405e+00
        1.1259128959863169e+00 1.0137909377266545e+00
        9.8478661850299987e-01 1.2862471981196026e+00
        1.5977076438388038e+00 7.7621352124567566e-01
        2.1503306790922192e+00 4.4596407416196229e+00
        1.6351875660486839e+00 2.1218478516574266e+00
        4.8069214580541469e-01 7.1605777295831130e-01
        2.5310810222260023e+00 1.6979706349651666e+00
        3.0855196431480167e+00 1.0902092507392236e+00
        4.6268802177390151e+00 8.3646141377988337e-01
        5.1578996574572200e-01 1.4813076222292982e+00
        1.5610592223943291e+00 1.0431423028745339e+00
        1.2223388786791698e+00 6.7005719829903443e-01
        1.0484260815309709e+00 1.2841391319150739e+00
        4.2255527218320825e+00 1.3931624782915510e+00
        9.2401411265336209e-01 2.0277959786093662e+00
        8.6122142835334081e-01 1.8445277253877962e-01
        9.5093088713179508e-01 2.3749430062785093e+00
        8.0927338714907595e+00 5.8952407643143161e+00
        7.4558990523265942e+00 3.6460419563524760e-01
        3.7679738691145209e-01 6.0481208029606410e+00
        2.5241783505032860e+00 1.6122117471738338e+00
        2.4944336983038911e+00 3.0844039992064700e+00
        8.5859430909364076e-01 5.1522934291481415e-01
        3.8905271563174026e-01 3.3677728993761175e-01
        2.0629743260470517e+00 1.5371209846518634e+00 10.
        7.9021601626636773e-01 1.6325517228115789e+00
        4.7946844487920943e+00 2.3990519154082396e-01
        8.9018016498693235e+00 4.7654267285475287e+00
        7.7298383314633967e-01 5.5158234214333746e-01
        6.1457082474067137e-01 7.3990216675971632e-01
        8.7921788361720168e+00 2.1580243028889972e+00
        1.6947022943752446e+00 1.3678290315288060e+00
        7.6508178197493792e-01 1.3775663677345529e+00
        2.7832670383907017e+00 1.8761896799344652e-01
        2.4532969333223145e+00 2.3711757575998362e+00
        3.3391314509562227e+00 9.5370381731886456e-01
        4.8407064410839773e+00 2.6220042597119533e+00
        3.3996489348271969e-01 7.4657244161360137e-01
        5.7154625003368187e-01 6.4155453190580081e-01
        9.8948458338451140e-01 1.3250429677963995e+00
        1.4116492803853431e+00 1.1288100391815490e+00
        2.0005533276933529e+00 1.5906815349225625e+00
        9.4129320301845509e-01 3.8279333879745265e+00 10.
        9.8525503768997202e-01 7.6938255752044626e-01
        5.7736221721173520e-01 1.0028518465311895e+00
        1.1287867815230777e+00 1.0436266965791137e+00
        8.1612984961412935e-02 7.0529865400019731e-01
        3.1180552887695973e-01 1.4015913368385040e+00
        1.0106137646444528e+00 2.2672517089037809e+00
        2.4085933034936624e-01 2.9602774782829968e+00
        5.6414370398328275e+00 1.0456773589617445e+00
        1.8536814511099758e-01 1.0372002052474538e+00
        5.4756001800068983e+00 10. 4.2866805249198405e+00 10.
        5.2263776760016531e+00 9.8482198360052553e-01
        3.0996760513977226e+00 5.6185421926643286e-01
        6.2033821067171235e-01 5.0245799383413048e-01
        3.1869715045157956e+00 6.4367510195244237e-01
        -1.9071857172911681e+00 -7.8857901567978637e+00
        -1.6122745883423502e+00 -3.7579505850400032e+00
        -2.0299593725354481e+00 -2.0280942772928472e+00
        -1.2503660628313231e+00 -1.4602098335545415e+00
        -1.3842101661604296e+00 -4.4873522362113585e+00
        -1.4190040462989206e+00 -1.3109840194746287e+00
        -1.0024508659002049e+00 -3.8304815204098541e+00
        -2.1929992330224737e+00 -4.2111611957955155e+00
        -1.0795249011639534e+00 -2.5042334313476968e+00
        -2.2692933168043621e+00 -9.3927797811525437e-01
        -5.4875774733134266e+00 -10. -7.9165320006319184e-01
        -2.5293369493562783e+00 -7.5158242040317658e-01
        -4.7745221233154883e-01 -1.9334143275822111e+00 -10. -10.
        -2.1939393775597389e+00 -1.0885017073181822e+00
        -1.2569422918853149e-01 -10. -6.9778564745706739e-01
        -3.4727092805339344e+00 -6.4259536086536651e-01
        -2.7366168746441297e+00 -6.6621041968051014e+00
        -1.0313250941362795e+00 -2.4195530662590352e+00
        -1.1567998283271317e+00 -1.1560143372648506e+00
        -1.4148762900268765e+00 -1.1350139635509882e+00
        -1.7391217180426448e+00 -1.3693899187174812e+00
        -4.0524042586035058e+00 -4.1802633022135609e+00
        -6.4652562154722504e-01 -8.3945941777387709e+00
        -1.5478008006419988e+00 -1.0027247956112169e+00
        -8.0832591930799014e-01 -5.5924196450717227e+00
        -9.8586633412354929e-01 -5.8761999012697892e+00
        -9.5067000127818579e-01 -8.3311454410039349e+00
        -4.4427422959841900e+00 -6.7704679945502235e+00
        -2.4935232975913793e+00 -4.2463978623202570e+00
        -1.5597890536753443e+00 -1.3935578566908300e+00
        -2.0976933310631725e+00 -9.4201336682389825e-01
        -4.2713001782441626e+00 -2.5733089299979803e+00
        -3.4327501448465889e+00 -1.0889894710241588e+00
        -5.7255085762147280e+00 -9.1162223435435707e-01
        -1.4855317226240239e-01 -6.2598269457875553e+00
        -4.4345910480789810e+00 -6.3523216912189842e+00
        -2.0081223742465508e+00 -1.3075388440545324e-01
        -1.9770739720646153e+00 -1.0023993999831311e+00
        -5.9287880850349173e-01 -10. -2.9460860593865554e+00
        -8.6846413779200429e+00 -1.6565634831248031e+00
        -2.1232192905161682e+00 -3.4447440246772536e+00
        -6.3025824209027204e-01 -10. -10. -1.0499998176666931e+00
        -2.9732326099370519e+00 -3.9515834487759083e+00
        -4.9223936502251409e+00 -1.0036889930183104e+00
        -3.8563250647333671e+00 -10. -8.4508171352579164e-01
        -5.4058509286785239e-01 -1.0539566634437572e+00
        -3.4754304037294110e+00 -2.5245297632513903e+00
        -3.7640614067366363e+00 -1.0640466758265603e+00
        -3.1831794420250352e+00 -10. -1.4830766749932131e-01
        -1.3556990340800619e+00 -9.1059837549666334e-01 -10.
        -1.7773095943422661e+00 -1.6308550492010441e+00
        -1.0819097959375519e+00 -8.6785810258204443e-01
        -2.9734305485646089e+00 -3.5158773256917804e+00
        -1.2618543615569835e+00 -8.8710131667236913e-01
        -7.0504818080261389e-01 -1.5483833604754973e+00
        -8.9278759134537156e-01 -2.1970590926330704e+00
        -9.4315318070128562e-01 -6.6142770828140951e-01
        -1.0431423028745339e+00 -3.6396371429538181e+00
        -1.8341846390609249e+00 -5.9162254618211074e-01
        -6.5394055331838175e+00 -1.1931189990862747e+00
        -2.9467906214920481e-01 -8.5284028538257828e-01
        -8.9309500095671984e-02 -1.0474443150945631e+00
        -8.7682963379251966e+00 -3.4134635340381649e+00
        -8.7784301119546759e-01 -5.7358196181054559e+00
        -2.1887453647867479e+00 -1.0255348591259041e+00
        -1.9581776217166151e+00 -7.7243698272759067e+00
        -7.7453422020320444e+00 -4.0186453710296044e-01
        -8.4996071132107998e-01 -7.5784198749851572e-01
        -2.7790219578486031e-01 -1.6034809537835897e+00
        -7.6436285259315744e+00 -1.0878217030523289e+00
        -3.7260310027226823e-02 -4.8000514070667162e+00
        -6.5337253141760732e-01 -6.1835116313307159e-01
        -1.0484260815309709e+00 -1.3369242838419859e+00 -10.
        -3.8545715570684203e+00 -5.4478286697023037e-01
        -5.9793002282870695e+00 -8.5850094591086421e+00
        -2.5288909948448342e+00 -10. -1.5695320861436590e+00
        -5.1974111303241575e+00 -1.0204396945171337e+00
        -3.1419444970201087e+00 -3.8022856664974363e+00
        -9.9291497562981643e+00 -1.4156805046593262e+00
        -1.0723366449988903e+00 -4.5285082434478419e+00
        -9.5830530992885810e-01 -1.1654134109687553e+00
        -2.4000197657974729e+00 -2.3702600135300598e+00
        -1.8301434760723927e+00 -7.9931113169346579e-01
        -6.3055245696004125e-01 -1.2125040405329277e+00
        -7.7307418106029757e-01 -9.7011700657756639e-01
        -2.1509950196262135e+00 -8.6927483114119930e+00
        -9.3033719114619617e-01 -7.0424686644680490e+00
        -1.8082108151317011e+00 -3.3465148095980886e+00
        -9.7851174463332971e+00 -10. -5.1929655817347165e-01
        -9.8704933300209219e-01 -1.1095684352315773e+00
        -7.1971027469308249e+00 -4.7058014557195289e+00
        -1.6970103301948307e+00 -2.1493422631743980e-01
        -7.7581428697119492e-01 -1.7448047562657789e+00
        -8.2177708041206343e-01 -1.0957357926978881e+00</alpha>
      <index>
        0 1 3 344 5 6 7 345 457 10 349 11 13 14 15 16 18 19 20 21 22 23
        24 351 26 352 354 356 357 358 33 360 361 37 38 362 40 363 366
        367 45 46 370 48 371 50 51 52 372 54 55 56 373 59 374 62 376 378
        379 380 381 383 71 72 73 74 75 385 80 387 84 85 388 88 90 91 92
        389 94 95 96 392 98 393 394 103 104 105 106 108 109 110 111 112
        396 114 399 401 117 118 406 407 409 410 124 411 412 127 129 131
        414 134 135 136 417 138 139 140 418 419 142 420 145 421 148 149
        151 152 153 422 423 424 425 426 161 427 163 165 167 430 431 171
        432 173 174 175 176 177 180 181 182 183 436 184 439 440 188 189
        443 191 192 193 194 195 196 445 198 199 447 201 448 203 205 206
        450 208 452 453 212 454 215 217 218 219 220 284 223 224 226 227
        229 232 234 235 236 237 239 242 243 244 245 247 248 249 250 252
        254 255 256 264 265 266 267 268 269 271 273 274 275 278 280 281
        283 285 286 287 288 289 291 293 294 295 297 301 302 303 306 308
        309 311 312 314 315 317 320 321 322 325 328 330 333 334 335 336
        338 339 342 2 4 8 9 12 17 25 27 28 29 30 31 32 34 35 36 39 41 42
        43 44 47 49 53 57 58 60 61 63 64 65 66 67 68 69 70 76 77 78 79
        81 82 83 86 87 89 93 97 99 100 101 102 107 113 115 116 119 120
        121 122 123 125 126 128 130 132 133 137 141 143 144 146 147 150
        154 155 156 157 158 159 160 162 164 166 168 169 170 172 178 179
        185 186 187 190 197 200 202 204 207 209 210 211 213 214 216 384
        332 231 228 386 292 222 251 270 337 390 391 296 233 298 340 395
        341 299 300 397 398 343 400 272 346 403 404 405 253 238 408 347
        348 304 305 350 413 225 307 415 353 416 276 355 277 310 257 279
        359 258 313 259 282 364 365 316 246 428 368 221 369 429 318 319
        260 433 434 261 435 262 263 437 438 240 323 441 375 442 324 444
        446 377 230 449 290 451 326 327 382 329 455 241 456 331 402</index></_></decision_functions></opencv_ml_svm>
</opencv_storage>
